<?xml version="1.0"?>
<opencv_storage>
<my_svm type_id="opencv-ml-svm">
  <svm_type>C_SVC</svm_type>
  <kernel><type>LINEAR</type></kernel>
  <C>1.</C>
  <term_criteria><epsilon>2.2204460492503131e-16</epsilon>
    <iterations>100</iterations></term_criteria>
  <var_all>4284</var_all>
  <var_count>4284</var_count>
  <class_count>4</class_count>
  <class_labels type_id="opencv-matrix">
    <rows>1</rows>
    <cols>4</cols>
    <dt>i</dt>
    <data>
      -1 0 1 12676960</data></class_labels>
  <sv_total>6</sv_total>
  <support_vectors>
    <_>
      1.21948135e-03 1.65251491e-03 1.89071160e-03 1.26950908e-03
      7.69832963e-03 2.14871974e-03 2.01139459e-03 1.47812092e-03
      1.12098688e-03 1.87276001e-03 2.30115000e-03 1.68038032e-03
      2.14763521e-03 8.25246144e-03 1.67849998e-03 1.84548728e-03
      1.56253472e-03 1.25876744e-03 8.39163736e-03 2.50398624e-03
      3.50991590e-03 1.96930906e-03 1.09351305e-02 1.82958494e-03
      2.14083190e-03 1.49163813e-03 8.01094528e-03 7.87099265e-03
      2.54139677e-03 2.71564350e-03 3.13597615e-03 1.30487569e-02
      2.62444979e-03 4.00559092e-03 2.29575462e-03 7.46976584e-03
      1.87169889e-03 2.22979975e-03 1.44557620e-03 2.08366755e-03
      6.41015451e-03 1.38045324e-03 1.22898654e-03 1.34798454e-03
      1.21316011e-03 2.81486195e-03 2.02005263e-03 1.80427427e-03
      2.28293287e-03 8.06342065e-03 1.96802896e-03 7.52815336e-04
      1.23904645e-03 2.07237760e-03 6.33718353e-03 2.88975728e-03
      3.59847839e-03 2.86743627e-03 1.11616664e-02 2.31616758e-03
      4.22233297e-03 2.60877819e-03 5.64548140e-03 9.15711001e-03
      4.39502858e-03 7.30471266e-03 2.64021754e-03 1.37937255e-02
      3.53260222e-03 3.11798300e-03 1.71838270e-03 8.63740034e-03
      3.07223527e-03 1.54408568e-03 1.95007271e-03 2.10549310e-03
      7.62903783e-03 1.55442208e-03 8.75557307e-04 8.00328678e-04
      2.25889776e-03 4.72765835e-03 1.42696546e-03 2.40704371e-03
      2.02388945e-03 1.08141871e-02 1.25327485e-03 9.55919444e-04
      8.29728437e-04 3.24422540e-03 8.70404113e-03 3.69560951e-03
      4.70122742e-03 1.88690529e-03 1.17632318e-02 1.96542870e-03
      1.56579271e-03 1.06581405e-03 7.46825896e-03 9.15291626e-03
      3.53417802e-03 5.30078029e-03 2.39647203e-03 1.13003999e-02
      1.59060571e-03 1.50869938e-03 1.23518042e-03 8.00933409e-03
      4.58537508e-03 1.68328790e-03 2.67714099e-03 1.95696158e-03
      1.38479192e-02 1.32650929e-03 6.34194876e-04 4.05761704e-04
      3.14729498e-03 4.35861340e-03 1.46843423e-03 2.03472236e-03
      1.44413870e-03 9.09374747e-03 1.19459920e-03 1.65477395e-03
      6.14303863e-04 2.90296390e-03 7.72147998e-03 2.84105423e-03
      5.20019652e-03 2.13281973e-03 1.35155488e-02 1.70045276e-03
      1.30938634e-03 7.51812942e-04 6.16766512e-03 6.00513024e-03
      3.21437791e-03 3.22209019e-03 2.01726868e-03 6.99810637e-03
      1.76251761e-03 2.28572264e-03 8.52898753e-04 4.67691850e-03
      3.33657931e-03 1.27904187e-03 1.47344801e-03 1.14120904e-03
      1.41405519e-02 1.19924953e-03 1.47546188e-03 6.66779757e-04
      1.94594928e-03 3.03145358e-03 2.60478118e-03 2.87040207e-03
      1.67018245e-03 2.60027777e-03 1.28472212e-03 1.26843737e-03
      7.83990195e-04 1.45058415e-03 4.35150834e-03 2.07597134e-03
      2.62529170e-03 1.12675002e-03 6.88481890e-03 1.13426393e-03
      1.99443405e-03 5.80134219e-04 3.12114391e-03 3.82236601e-03
      3.03405477e-03 3.16210487e-03 1.31303724e-03 2.25189282e-03
      1.07646186e-03 1.86421140e-03 5.82703506e-04 2.52267136e-03
      2.43224599e-03 2.37157685e-03 2.57028895e-03 1.20332255e-03
      2.20826524e-03 1.07119442e-03 8.38669890e-04 4.22379642e-04
      1.04201166e-03 2.91993399e-03 2.90393597e-03 2.99436506e-03
      1.54155726e-03 8.62009637e-03 1.36656128e-03 1.96103030e-03
      1.51421549e-03 1.98495737e-03 3.13102663e-03 2.71631335e-03
      2.98202434e-03 1.06752582e-03 1.78542244e-03 9.97747760e-04
      8.69004172e-04 3.83554230e-04 1.82524067e-03 3.18860845e-03
      2.42015370e-03 2.30748556e-03 1.27633137e-03 8.16584192e-03
      1.22278335e-03 1.93757261e-03 1.12030003e-03 2.08012946e-03
      3.05934716e-03 2.68913759e-03 2.11013504e-03 1.09774200e-03
      3.83317401e-03 1.32796448e-03 2.57876050e-03 1.54282257e-03
      2.19524489e-03 2.91611068e-03 2.52065179e-03 1.69198995e-03
      7.18077063e-04 7.63607398e-03 1.58536050e-03 3.13905254e-03
      2.55511189e-03 2.36222357e-03 3.29051726e-03 2.10947054e-03
      1.91275065e-03 1.11252372e-03 3.46693094e-03 1.30174868e-03
      2.48200423e-03 1.16412749e-03 2.23660073e-03 3.47903464e-03
      2.10502208e-03 2.25240737e-03 1.35505269e-03 1.75762326e-02
      2.04489031e-03 3.11590172e-03 2.41169357e-03 2.57331785e-03
      2.60842592e-03 1.73698564e-03 1.21154299e-03 5.55941078e-04
      5.79546345e-03 1.62794616e-03 3.33674741e-03 1.90027896e-03
      1.84462289e-03 3.40611045e-03 1.85085484e-03 1.58206013e-03
      9.04346583e-04 6.12917542e-03 2.24193069e-03 2.91308202e-03
      2.20559048e-03 2.07867986e-03 4.68940753e-03 1.64839334e-03
      1.43708067e-03 9.06427857e-04 7.92776700e-03 1.86798931e-03
      3.08809592e-03 2.63525220e-03 3.91715579e-03 1.09910397e-02
      2.44549313e-03 1.70424895e-03 9.52218485e-04 1.29803848e-02
      1.97821762e-03 5.95299201e-03 3.13477567e-03 9.88851581e-03
      3.45031195e-03 1.54028425e-03 1.13961939e-03 7.56184338e-04
      5.31423837e-03 1.64639950e-03 2.64454074e-03 1.47680566e-03
      2.54854653e-03 3.74407554e-03 1.52372243e-03 1.44040037e-03
      6.97020383e-04 5.69540495e-03 1.42506068e-03 1.96503801e-03
      1.68399897e-03 3.59242968e-03 8.95931106e-03 3.52794654e-03
      3.51583143e-03 1.01893663e-03 8.27684905e-03 1.94416917e-03
      6.59385324e-03 2.88644084e-03 7.80165568e-03 1.11383721e-02
      5.20832138e-03 1.02569591e-02 1.23472698e-03 1.81592628e-02
      1.89417321e-03 5.64377150e-03 2.55539035e-03 1.02717392e-02
      2.85493815e-03 1.25048531e-03 9.52906790e-04 6.73710194e-04
      5.92083717e-03 1.44390843e-03 2.34845444e-03 1.97905512e-03
      3.34059028e-03 3.04230303e-03 1.43037771e-03 1.71824521e-03
      1.34313910e-03 6.39542937e-03 1.80420117e-03 2.50765216e-03
      2.67920666e-03 3.85920890e-03 8.24387185e-03 2.91595282e-03
      5.71180554e-03 1.19283737e-03 8.81440658e-03 1.85530656e-03
      3.10247927e-03 2.37518968e-03 8.39404296e-03 1.33313229e-02
      6.90224022e-03 9.85517260e-03 6.03671977e-03 1.72145851e-02
      2.81259278e-03 4.55341954e-03 3.63278133e-03 1.26894424e-02
      2.64763599e-03 1.34810538e-03 1.29415304e-03 9.76568554e-04
      5.68267098e-03 1.33954210e-03 1.92753354e-03 2.22163391e-03
      3.61677678e-03 3.66091472e-03 9.96240298e-04 1.07479957e-03
      1.03018212e-03 6.25871448e-03 1.82959880e-03 2.27405271e-03
      1.83827162e-03 4.03808849e-03 1.14992009e-02 6.26174640e-03
      5.11357235e-03 3.47416964e-03 1.31937731e-02 2.09250976e-03
      5.91531536e-03 4.07974562e-03 1.01048145e-02 1.17992321e-02
      6.29353197e-03 4.54545161e-03 3.08672385e-03 9.91706271e-03
      2.32728641e-03 7.78048811e-03 4.70611965e-03 1.24667054e-02
      3.68336239e-03 1.06471078e-03 1.20628043e-03 1.03073451e-03
      6.67963969e-03 2.55251001e-03 2.50014942e-03 1.76481646e-03
      4.82450426e-03 5.32104215e-03 1.86337647e-03 1.89903588e-03
      1.71724416e-03 7.39834597e-03 3.47980671e-03 2.28420622e-03
      3.03477817e-03 6.49042288e-03 1.08382730e-02 4.66139056e-03
      3.08785005e-03 1.79991196e-03 8.82942695e-03 2.76232371e-03
      6.85174065e-03 5.02527552e-03 1.08210612e-02 1.35702835e-02
      4.19065915e-03 2.08186917e-03 2.10074685e-03 1.17604053e-02
      1.96675234e-03 6.53320551e-03 6.00471487e-03 1.47785135e-02
      5.58208907e-03 1.75215292e-03 2.09508068e-03 1.61286781e-03
      6.41734945e-03 2.10085278e-03 1.90707215e-03 1.95186550e-03
      6.13083923e-03 6.28339592e-03 2.84328335e-03 3.40918382e-03
      2.75842450e-03 7.54585955e-03 2.09698617e-03 2.27943086e-03
      1.61750580e-03 7.16882385e-03 1.19009595e-02 3.32160341e-03
      4.30373847e-03 2.49807118e-03 9.15271323e-03 1.60715845e-03
      3.43474397e-03 4.65526991e-03 1.31592555e-02 1.17599908e-02
      5.40508796e-03 9.47770383e-03 3.76431621e-03 1.17637478e-02
      2.50781095e-03 2.77808332e-03 3.21826385e-03 1.31623009e-02
      5.89940744e-03 2.50405911e-03 2.63191154e-03 2.61633797e-03
      6.76238630e-03 1.84180913e-03 1.85591041e-03 1.61797949e-03
      6.90833991e-03 5.92940161e-03 3.86595004e-03 1.20621594e-03
      1.51896256e-03 6.60726801e-03 3.02539510e-03 2.17532087e-03
      1.54462259e-03 6.44503394e-03 1.03635117e-02 4.02587932e-03
      7.23902741e-03 3.22922459e-03 1.37876691e-02 2.74120737e-03
      2.24316469e-03 1.94961904e-03 1.11921486e-02 1.06802098e-02
      4.13597981e-03 3.92469019e-03 2.74296268e-03 1.42170656e-02
      3.66173498e-03 6.02927711e-03 2.60413811e-03 1.16234170e-02
      5.75275254e-03 4.08010231e-03 1.07056368e-03 1.51179789e-03
      7.68399006e-03 3.00367572e-03 2.01820186e-03 1.65252353e-03
      5.96237183e-03 5.69932628e-03 1.44085370e-03 7.66702637e-04
      1.65125786e-03 7.11086392e-03 2.84573832e-03 1.74694636e-03
      2.37556454e-03 7.19370740e-03 9.95840225e-03 3.94330360e-03
      3.28547228e-03 2.75224424e-03 1.18697602e-02 3.96223692e-03
      7.06966268e-03 2.90398160e-03 9.93815158e-03 1.07884295e-02
      2.20222725e-03 2.89787841e-03 2.35845940e-03 1.36934426e-02
      3.97493923e-03 6.83752168e-03 3.80421570e-03 1.19442046e-02
      5.22567285e-03 1.51491200e-03 8.96914513e-04 1.12521928e-03
      6.56520808e-03 2.71354732e-03 2.40084296e-03 4.22556140e-03
      6.05071895e-03 4.96009644e-03 2.04996672e-03 2.02352507e-03
      1.78983074e-03 7.31099164e-03 3.64582473e-03 2.30387994e-03
      3.87216592e-03 5.18915430e-03 9.83076915e-03 1.59864675e-03
      1.82030222e-03 1.97532633e-03 1.25283040e-02 5.09503484e-03
      7.57593010e-03 5.88716939e-03 1.07457526e-02 9.81680583e-03
      3.02277668e-03 4.42314334e-03 3.67492065e-03 1.37796486e-02
      5.55389514e-03 6.77804044e-03 5.70150558e-03 1.22039691e-02
      5.18564926e-03 1.95220858e-03 2.25198572e-03 1.96202099e-03
      8.12196080e-03 3.58043727e-03 2.30061077e-03 2.05120561e-03
      5.26151573e-03 5.56357717e-03 1.37998746e-03 1.29983155e-03
      1.44249189e-03 8.62015504e-03 3.11161950e-03 1.46696065e-03
      1.53901055e-03 5.43901464e-03 9.40730143e-03 3.89145338e-03
      5.43284463e-03 4.18480532e-03 1.47525771e-02 3.94954951e-03
      4.47994564e-03 4.22946969e-03 1.07577648e-02 1.07492805e-02
      2.88806460e-03 3.92183010e-03 1.62171444e-03 1.40887024e-02
      4.00149357e-03 5.80728613e-03 5.31230355e-03 1.14031797e-02
      7.02486420e-03 2.53518135e-03 3.71659105e-03 1.90446817e-03
      1.08453240e-02 1.33439049e-03 1.59797445e-03 1.65811041e-03
      6.93414919e-03 6.60749804e-03 2.26780167e-03 3.02925054e-03
      2.74540787e-03 1.28434328e-02 2.58242153e-03 4.30426234e-03
      2.55335309e-03 6.82398025e-03 4.89455182e-03 2.21462338e-03
      2.19208770e-03 2.14587292e-03 8.67161807e-03 1.61560415e-03
      1.68072444e-03 1.76564034e-03 4.65643452e-03 4.90227202e-03
      1.62454275e-03 2.25768797e-03 2.04953342e-03 1.02101285e-02
      3.27465707e-03 3.73732275e-03 2.62458157e-03 5.09953173e-03
      5.77704469e-03 2.02252180e-03 3.38380411e-03 2.08477164e-03
      1.11146215e-02 2.76116049e-03 4.58414154e-03 2.28365650e-03
      6.06478937e-03 7.28961406e-03 3.34265758e-03 5.94745204e-03
      2.08779611e-03 1.31034227e-02 3.58498003e-03 4.23685648e-03
      1.56722416e-03 6.67196745e-03 3.79268685e-03 1.22609851e-03
      1.90167432e-03 1.38044264e-03 9.25000757e-03 2.87772762e-03
      3.69264395e-03 2.35798419e-03 4.50558914e-03 4.43942845e-03
      1.54163339e-03 2.52485811e-03 1.80780457e-03 1.02495421e-02
      3.40252556e-03 3.75765003e-03 2.54291971e-03 4.83122608e-03
      8.06260575e-03 2.83941510e-03 5.16016735e-03 1.72754063e-03
      1.18818404e-02 2.54363660e-03 2.10404256e-03 1.01918820e-03
      7.13527482e-03 7.86670670e-03 2.56750011e-03 3.84791382e-03
      1.34984893e-03 1.08719217e-02 1.43548613e-03 1.70835957e-03
      1.19418732e-03 6.85642101e-03 4.20178520e-03 1.37887232e-03
      2.26264633e-03 1.55702548e-03 8.01816676e-03 3.13251186e-03
      2.73124711e-03 1.64185546e-03 4.38236818e-03 4.41078003e-03
      2.73005827e-03 2.33352440e-03 1.86899793e-03 6.59221737e-03
      1.46625296e-03 2.02604663e-03 1.78169878e-03 4.13941499e-03
      8.97694938e-03 1.86323852e-03 3.42684845e-03 9.64359555e-04
      1.60978884e-02 1.14086783e-03 1.17480836e-03 7.10376422e-04
      7.67873786e-03 4.50464478e-03 1.88972917e-03 2.84324959e-03
      1.21089921e-03 3.48619791e-03 1.17812294e-03 1.77918107e-03
      8.05996242e-04 3.40588484e-03 3.90381180e-03 3.28469160e-03
      2.85947043e-03 1.32071611e-03 7.56591465e-03 1.00505678e-03
      1.60268811e-03 1.47729449e-03 2.91105662e-03 3.32026277e-03
      3.06633650e-03 2.45825667e-03 1.41843350e-03 1.44349784e-03
      1.19629793e-03 1.87951582e-03 1.28945953e-03 2.43012491e-03
      9.42461006e-03 2.03396077e-03 2.40389584e-03 1.20307656e-03
      8.62219743e-03 1.12778496e-03 1.74732984e-03 7.82679941e-04
      8.33428651e-03 3.58742988e-03 2.26198300e-03 2.73892912e-03
      9.74000955e-04 1.60176645e-03 1.04721251e-03 1.57276867e-03
      5.72381192e-04 2.51408527e-03 3.20464093e-03 2.50619487e-03
      2.37867865e-03 1.22453249e-03 1.67131738e-03 1.27819797e-03
      1.80859072e-03 1.22411328e-03 2.41372967e-03 3.39331874e-03
      2.27177073e-03 2.05676281e-03 9.34402226e-04 1.79605559e-03
      1.17922761e-03 1.48958259e-03 9.78995231e-04 2.47498392e-03
      3.51610198e-03 2.53456808e-03 2.67660595e-03 1.20703655e-03
      2.08278582e-03 1.09750405e-03 1.28335482e-03 5.91993041e-04
      2.66574975e-03 3.38885421e-03 2.81918561e-03 2.63202400e-03
      1.28827780e-03 8.42363480e-03 1.24817633e-03 1.84655387e-03
      1.23335794e-03 2.71692639e-03 3.52069968e-03 2.58469000e-03
      2.17315787e-03 8.98801314e-04 2.41607311e-03 1.06579298e-03
      1.11031509e-03 1.00466586e-03 2.81524891e-03 1.10702664e-02
      3.53850611e-03 5.00978297e-03 1.20191323e-03 1.33390408e-02
      1.07473857e-03 1.53726689e-03 9.22118721e-04 1.02423234e-02
      3.30126705e-03 2.45262450e-03 2.22992292e-03 1.25122594e-03
      2.88379285e-03 1.28637184e-03 1.89729815e-03 1.07783906e-03
      2.13950081e-03 4.04129596e-03 2.53285677e-03 2.67652469e-03
      1.78179704e-03 9.13504511e-03 1.95172266e-03 3.11794598e-03
      2.61885277e-03 3.05519649e-03 4.09432966e-03 2.82325014e-03
      3.65589466e-03 1.24018313e-03 5.95514523e-03 9.65067942e-04
      1.41426024e-03 7.02077639e-04 2.76143616e-03 7.57396920e-03
      4.41600336e-03 8.83900374e-03 1.55988662e-03 1.44963246e-02
      1.11214712e-03 2.28630821e-03 1.63973810e-03 6.56525278e-03
      3.83838592e-03 2.20217276e-03 2.09005876e-03 1.47935830e-03
      8.62086285e-03 1.55278237e-03 2.79200263e-03 2.24633259e-03
      2.91155162e-03 6.98655890e-03 3.05378693e-03 2.34849914e-03
      1.15307793e-03 9.96429194e-03 1.63913984e-03 4.89041908e-03
      3.15919775e-03 5.83441043e-03 5.60742896e-03 2.33714981e-03
      4.18548845e-03 1.69909699e-03 1.04097268e-02 8.85521644e-04
      2.78191431e-03 1.68500317e-03 4.83454717e-03 7.47484015e-03
      2.65977602e-03 2.90594669e-03 1.53559120e-03 9.93712619e-03
      1.35153555e-03 4.95104818e-03 3.23261693e-03 7.18226517e-03
      7.33099831e-03 3.71772167e-03 3.81847681e-03 1.01381494e-03
      8.25166982e-03 1.37400965e-03 5.67320548e-03 2.91946810e-03
      6.28075050e-03 8.12273286e-03 4.04986087e-03 7.23384134e-03
      1.36629003e-03 1.27654355e-02 1.93181995e-03 4.61738603e-03
      2.53435294e-03 7.79780326e-03 6.74230698e-03 2.86855386e-03
      3.48764262e-03 9.44330590e-04 8.45616963e-03 1.06653688e-03
      3.88579327e-03 2.36643921e-03 5.73856197e-03 7.48794852e-03
      3.51561513e-03 6.79594232e-03 5.05427131e-04 1.45060392e-02
      1.88052584e-03 3.55607294e-03 2.22184393e-03 6.43826695e-03
      7.19129387e-03 2.74492567e-03 6.01300737e-03 1.20046211e-03
      7.90572632e-03 1.45420805e-03 3.48009472e-03 2.57507595e-03
      7.79539999e-03 8.77530593e-03 3.38298944e-03 7.27470359e-03
      5.85770980e-03 1.51962154e-02 3.28674447e-03 4.27576713e-03
      3.44458618e-03 9.42459144e-03 5.59422374e-03 2.00053467e-03
      3.25957383e-03 5.59503096e-04 6.65052747e-03 1.68593519e-03
      2.63700401e-03 1.81366107e-03 5.55213215e-03 4.97754291e-03
      2.23739934e-03 3.96596733e-03 5.61997201e-03 1.27265640e-02
      4.61992109e-03 3.48236295e-03 2.26769876e-03 5.99984406e-03
      7.87113607e-03 3.81384348e-03 4.66210349e-03 3.38311843e-03
      1.29962200e-02 2.15500733e-03 5.39592560e-03 4.10605175e-03
      8.16580374e-03 9.67446435e-03 5.12008322e-03 4.10626549e-03
      3.00265709e-03 1.09845148e-02 1.76572287e-03 8.05689301e-03
      4.47793584e-03 9.15195514e-03 3.87890334e-03 1.53438433e-03
      2.27991887e-03 3.41330632e-03 1.05670961e-02 2.97180749e-03
      3.70324752e-03 2.53057899e-03 4.89129173e-03 5.35469595e-03
      1.95499370e-03 2.28781044e-03 3.80161172e-03 1.05013568e-02
      2.86684372e-03 6.09034533e-03 4.28686617e-03 5.97416610e-03
      9.68345441e-03 4.75845579e-03 2.95768911e-03 1.92078773e-03
      8.86025280e-03 2.09863205e-03 7.16580497e-03 4.41673212e-03
      9.37393494e-03 1.13007165e-02 3.29581695e-03 1.57342269e-03
      2.76198937e-03 1.14604384e-02 1.75747380e-03 5.99575602e-03
      4.64823609e-03 1.21080289e-02 6.25232561e-03 2.44806404e-03
      2.54767551e-03 2.44635297e-03 8.47857539e-03 3.09292157e-03
      6.37038518e-03 4.94073192e-03 6.63194945e-03 5.95234847e-03
      2.01907242e-03 1.66943111e-03 3.52516328e-03 1.05250133e-02
      2.24149018e-03 4.68882220e-03 4.10112785e-03 6.33473787e-03
      1.03277024e-02 2.38582375e-03 3.49342194e-03 4.04927181e-03
      1.02343466e-02 1.35869370e-03 3.36780050e-03 4.25240258e-03
      1.09575428e-02 9.04058851e-03 3.87262460e-03 7.25415489e-03
      4.17003641e-03 1.22949407e-02 3.56497662e-03 2.77576712e-03
      3.68880876e-03 1.03532746e-02 5.15120011e-03 1.54868374e-03
      2.00840109e-03 3.71544738e-03 8.45190603e-03 1.84625550e-03
      3.61685688e-03 3.37190460e-03 6.11705566e-03 5.96599700e-03
      2.30571162e-03 3.41316243e-03 3.87827144e-03 9.44751222e-03
      3.19531118e-03 2.99986452e-03 3.14504979e-03 7.15947850e-03
      8.83052405e-03 3.73885245e-03 6.68314099e-03 2.39440240e-03
      1.24966204e-02 3.63859301e-03 2.77921115e-03 3.11248936e-03
      9.77149885e-03 8.66371114e-03 2.93725054e-03 6.06601592e-03
      3.61440587e-03 1.31520368e-02 4.06797742e-03 6.80699246e-03
      4.20953566e-03 9.19867586e-03 7.18466565e-03 3.36922822e-03
      3.98203544e-03 2.56564398e-03 9.86098964e-03 2.89030490e-03
      2.76175258e-03 3.28548835e-03 7.56840361e-03 7.08842557e-03
      3.18398187e-03 4.63108486e-03 3.49258399e-03 1.03551922e-02
      3.76541261e-03 5.34454361e-03 5.35562076e-03 7.51752406e-03
      6.65278966e-03 2.14189151e-03 4.98251384e-03 4.00390010e-03
      1.19650094e-02 4.12230752e-03 7.15719396e-03 3.65147111e-03
      8.15333799e-03 7.18366262e-03 2.00378289e-03 4.25424613e-03
      4.49887570e-03 1.32346088e-02 4.18197177e-03 7.29501992e-03
      3.68510978e-03 8.60598125e-03 5.02073113e-03 1.84619706e-03
      4.24586795e-03 4.35557915e-03 1.01250270e-02 4.07167617e-03
      5.50060719e-03 4.62127430e-03 6.82368502e-03 5.39262686e-03
      1.82021433e-03 3.57213384e-03 4.22804570e-03 1.09920986e-02
      4.44705272e-03 5.89657621e-03 3.02792317e-03 6.02326822e-03
      5.85075794e-03 1.08725193e-03 1.59716548e-03 2.38953764e-03
      1.28977308e-02 6.20419905e-03 8.51670001e-03 4.19776235e-03
      6.73891418e-03 6.42367778e-03 2.07153545e-03 3.51255108e-03
      3.51262954e-03 1.43098570e-02 5.88975521e-03 6.54395716e-03
      3.78373871e-03 6.89879525e-03 4.19532554e-03 1.74937444e-03
      1.45482644e-03 3.36827082e-03 1.21952249e-02 5.66717563e-03
      5.25511615e-03 2.18565902e-03 4.14810888e-03 4.43555973e-03
      1.97787606e-03 3.14581348e-03 3.41548491e-03 1.24186603e-02
      7.29416404e-03 4.38445620e-03 2.50249798e-03 4.77080466e-03
      6.37238426e-03 2.97416374e-03 5.10900840e-03 3.82270478e-03
      1.43711474e-02 4.14222153e-03 4.71216999e-03 3.60454642e-03
      6.82168594e-03 8.04901030e-03 3.13825626e-03 4.53914050e-03
      1.60627486e-03 1.14702173e-02 3.99467209e-03 7.05111446e-03
      4.87980619e-03 8.43383931e-03 5.75252064e-03 2.79354933e-03
      4.42714244e-03 4.58692992e-03 1.31368563e-02 5.97386295e-03
      3.82756907e-03 2.74160644e-03 4.74689249e-03 7.75978528e-03
      3.75531288e-03 4.34460212e-03 3.13742599e-03 1.21653108e-02
      5.15242619e-03 5.52936969e-03 3.93320527e-03 8.12185276e-03
      7.13574281e-03 1.78388774e-03 1.50493591e-03 2.01024557e-03
      6.81014592e-03 1.63014175e-03 1.47696643e-03 2.01394106e-03
      7.40301423e-03 8.84322263e-03 1.16046914e-03 1.42678909e-03
      2.26926454e-03 8.00115522e-03 2.99355783e-03 2.92750425e-03
      2.41086539e-03 9.48796887e-03 2.19762814e-03 1.50174985e-03
      1.38907169e-03 1.78390136e-03 6.65537454e-03 1.76036917e-03
      1.64232613e-03 2.22503184e-03 2.51638424e-03 2.23473762e-03
      1.45605905e-03 1.52579544e-03 1.69544481e-03 6.83594774e-03
      2.21625157e-03 2.28695758e-03 2.25648470e-03 2.44150474e-03
      8.89953319e-03 8.52227909e-04 9.13547701e-04 1.18247920e-03
      5.76233771e-03 2.57696235e-03 2.97286641e-03 2.58969725e-03
      9.12514143e-03 6.49196282e-03 1.21321925e-03 1.23503408e-03
      1.46872795e-03 7.61163235e-03 2.60858424e-03 3.08440556e-03
      3.14811058e-03 6.76543871e-03 1.53296848e-03 1.14089542e-03
      1.35063054e-03 1.52260892e-03 5.85911004e-03 2.50988081e-03
      2.24975380e-03 2.61273445e-03 1.97702064e-03 1.96230505e-03
      2.33530672e-03 2.70218798e-03 1.80757220e-03 7.90114142e-03
      2.52707419e-03 2.89902347e-03 3.07143480e-03 2.50185863e-03
      2.47256155e-03 6.95613096e-04 1.07048568e-03 9.23776475e-04
      5.78101398e-03 2.39927578e-03 1.81075663e-03 2.18468439e-03
      2.62853829e-03 2.10152147e-03 2.68933526e-03 2.16377922e-03
      1.33121479e-03 5.65295806e-03 1.27854676e-03 1.30512158e-03
      1.57008320e-03 2.43208627e-03 1.60755496e-03 2.16944446e-03
      2.52641994e-03 1.15080457e-03 5.62694948e-03 1.73679041e-03
      1.97254471e-03 2.11502379e-03 1.57201709e-03 8.09540413e-03
      2.58819782e-03 2.54603964e-03 1.53074018e-03 1.35961603e-02
      1.52917020e-03 2.27608462e-03 1.91365043e-03 7.43205519e-03
      2.37298734e-03 3.20978928e-03 2.33911118e-03 1.35108968e-03
      7.12391036e-03 1.06180133e-03 1.18509796e-03 1.49858999e-03
      1.40541268e-03 2.32515298e-03 2.52886908e-03 2.23571272e-03
      1.17888977e-03 1.26984145e-03 1.04883965e-03 1.44472253e-03
      1.33612473e-03 1.59827201e-03 4.02381690e-03 2.29950109e-03
      2.33352021e-03 1.44126697e-03 1.05788857e-02 1.42457185e-03
      2.62755342e-03 1.74278952e-03 3.00455559e-03 8.01502913e-03
      2.16313126e-03 1.70466013e-03 1.12239830e-03 8.89509544e-03
      1.21263252e-03 6.53193193e-03 3.16358847e-03 7.08458526e-03
      2.88046803e-03 2.32833228e-03 1.92603434e-03 1.29360589e-03
      1.96804921e-03 1.33917260e-03 1.84230006e-03 1.50265382e-03
      2.22319132e-03 3.82131594e-03 2.34846724e-03 2.58072326e-03
      9.61832644e-04 2.26036692e-03 1.19599106e-03 1.67097058e-03
      1.76912465e-03 3.30525334e-03 7.07364921e-03 2.12788605e-03
      1.71179359e-03 1.00219797e-03 6.64400682e-03 1.49372080e-03
      3.91445449e-03 2.26324354e-03 6.34234166e-03 7.97054730e-03
      3.16543272e-03 4.57665557e-03 9.12430871e-04 6.89014979e-03
      1.13088777e-03 2.28710403e-03 2.01106910e-03 7.76434969e-03
      3.78556200e-03 2.48042913e-03 3.42045981e-03 8.43392743e-04
      3.00815259e-03 9.00285435e-04 1.42676360e-03 1.74467429e-03
      3.13525856e-03 4.77878749e-03 3.02160042e-03 5.23153506e-03
      1.03269750e-03 1.07353153e-02 7.24669546e-04 1.70985947e-03
      1.55218132e-03 4.09466773e-03 6.35025743e-03 4.12278669e-03
      6.79382402e-03 8.92365526e-04 6.36328151e-03 1.22083619e-03
      2.12126574e-03 1.87949382e-03 6.08429546e-03 6.45154295e-03
      4.81611770e-03 7.16985902e-03 1.24507630e-03 1.28857270e-02
      1.18283578e-03 2.35715741e-03 1.90190820e-03 5.77895902e-03
      4.68028337e-03 3.30095389e-03 5.68734482e-03 1.27507106e-03
      7.70291686e-03 8.54115118e-04 1.63494877e-03 1.30898156e-03
      4.03022347e-03 5.95804164e-03 4.02458152e-03 6.33344846e-03
      1.67889718e-03 1.24948183e-02 1.21108675e-03 2.10132729e-03
      1.70021912e-03 4.84425901e-03 5.66814421e-03 3.86633468e-03
      6.46398682e-03 1.46944541e-03 7.99839199e-03 7.71224557e-04
      1.98939699e-03 1.59011583e-03 4.79868660e-03 5.09184459e-03
      3.64985829e-03 4.28404333e-03 1.55761244e-03 1.16220983e-02
      8.87217524e-04 1.84304884e-03 1.37450814e-03 4.32404689e-03
      7.06461631e-03 3.84135218e-03 7.36788847e-03 1.70915993e-03
      1.29147125e-02 8.90744035e-04 2.52793496e-03 2.10876274e-03
      6.58739451e-03 6.42621750e-03 2.83400877e-03 3.33250454e-03
      1.93811965e-03 1.09738624e-02 1.55537587e-03 3.70878889e-03
      2.99661839e-03 5.92871662e-03 4.18161647e-03 2.48501287e-03
      2.69695418e-03 1.49125559e-03 9.46091302e-03 7.06995430e-04
      1.05848873e-03 9.91627574e-04 3.44777270e-03 3.50960158e-03
      1.65284588e-03 1.56399480e-03 1.16534042e-03 7.14687817e-03
      1.44162099e-03 1.77962019e-03 1.55698776e-03 3.02775088e-03
      1.02714412e-02 3.22867418e-03 2.57584010e-03 1.31926499e-03
      1.41494228e-02 1.82798272e-03 3.85011500e-03 2.93346145e-03
      9.90309753e-03 8.45130160e-03 2.91267131e-03 3.42158345e-03
      7.83153344e-04 1.31220892e-02 2.70942668e-03 2.86497548e-03
      2.71697412e-03 8.23529996e-03 3.32021760e-03 1.29177992e-03
      1.01970113e-03 8.04164680e-04 6.44085556e-03 2.10372335e-03
      1.66711106e-03 1.14505971e-03 2.29769014e-03 4.21091355e-03
      1.33636000e-03 1.45170023e-03 4.19132441e-04 1.35675762e-02
      2.65344582e-03 2.77446280e-03 1.73963874e-03 3.67678492e-03
      1.00122029e-02 1.81139633e-03 1.00253348e-03 6.63445913e-04
      5.98895829e-03 2.07321648e-03 2.86173169e-03 2.24029785e-03
      1.00674592e-02 9.81223676e-03 2.06051278e-03 2.62281112e-03
      4.62258887e-03 1.10862153e-02 4.44655865e-03 3.70437093e-03
      2.73666019e-03 1.00732241e-02 3.53270955e-03 1.17116002e-03
      8.31993762e-04 4.76334098e-04 6.84471196e-03 1.94586557e-03
      1.90801371e-03 9.60276462e-04 3.06629669e-03 3.48034711e-03
      1.88513543e-03 2.74774316e-03 3.22625996e-03 1.13164140e-02
      6.95438031e-03 3.64119443e-03 2.77106906e-03 3.13857663e-03
      7.66561413e-03 1.06051180e-03 1.05741492e-03 3.01567232e-03
      9.32946522e-03 2.57918588e-03 2.97282706e-03 2.42329156e-03
      8.71725194e-03 9.81745496e-03 1.62516371e-03 1.38349354e-03
      3.26267513e-03 9.85386688e-03 3.17044044e-03 4.22775978e-03
      3.42966756e-03 1.10905031e-02 2.72626127e-03 1.93176547e-03
      1.65867829e-03 1.87377876e-03 9.54188872e-03 4.01582802e-03
      2.59882654e-03 1.71627698e-03 3.02797300e-03 4.71315719e-03
      2.64438824e-03 2.36026268e-03 2.42845598e-03 9.88796540e-03
      4.67706751e-03 3.30301351e-03 2.90375343e-03 4.93641151e-03
      1.01016778e-02 2.01471453e-03 2.26006866e-03 2.17994652e-03
      6.98379334e-03 2.46205227e-03 3.73433949e-03 3.03223077e-03
      1.08649815e-02 9.02690459e-03 1.93651218e-03 1.90645037e-03
      3.14309704e-03 8.26682150e-03 2.12070183e-03 2.81208800e-03
      3.38496920e-03 9.74751916e-03 6.71210932e-03 2.97925505e-03
      2.84587429e-03 2.35124375e-03 6.92930818e-03 3.58991860e-03
      2.91993981e-03 2.68333801e-03 6.51962915e-03 5.81189524e-03
      3.13605205e-03 3.97276133e-03 2.49966513e-03 8.32488015e-03
      3.07135587e-03 2.34503532e-03 2.14677025e-03 5.40889148e-03
      5.82031673e-03 2.27751257e-03 1.68366102e-03 4.29625111e-03
      9.43859667e-03 2.13373662e-03 2.32942146e-03 2.87597394e-03
      6.14717044e-03 1.00838244e-02 2.78687268e-03 1.72738405e-03
      3.31559242e-03 9.36465990e-03 2.50073127e-03 2.92498176e-03
      3.25949350e-03 1.06913708e-02 4.54546744e-03 3.51541117e-03
      1.87588774e-03 2.63576838e-03 9.62846912e-03 2.49720900e-03
      2.22586817e-03 3.00819473e-03 4.06553596e-03 4.63285437e-03
      3.99450772e-03 2.07670522e-03 2.91542942e-03 9.41738486e-03
      2.36012391e-03 2.32523354e-03 4.08941740e-03 4.08119755e-03
      9.02961660e-03 2.54388456e-03 2.30666483e-03 3.48874391e-03
      8.54150206e-03 2.93662422e-03 3.26729217e-03 3.35366931e-03
      1.03187747e-02 9.21992399e-03 2.13728729e-03 2.43354915e-03
      3.79048917e-03 8.65281653e-03 3.77684226e-03 3.19074979e-03
      3.68218450e-03 1.01798363e-02 3.87081201e-03 3.78736411e-03
      3.83663876e-03 3.67798680e-03 8.44631065e-03 3.30225565e-03
      3.11802886e-03 3.62731633e-03 4.24271449e-03 4.27232683e-03
      3.65027250e-03 4.48511029e-03 4.50313464e-03 8.62091500e-03
      3.49069433e-03 2.73284945e-03 3.03745409e-03 3.91690480e-03
      7.89497606e-03 1.06065348e-03 2.18945835e-03 2.88458238e-03
      9.02855769e-03 5.10602770e-03 3.34230741e-03 3.16901621e-03
      9.64706670e-03 8.99775978e-03 1.59167487e-03 1.97816663e-03
      4.26028157e-03 9.29183327e-03 4.93832631e-03 4.33858484e-03
      2.67639197e-03 9.89636686e-03 3.26018967e-03 2.74365023e-03
      2.90034711e-03 3.86873400e-03 8.93037207e-03 3.31537658e-03
      1.53545546e-03 1.91757386e-03 3.56008834e-03 3.22167878e-03
      2.74241343e-03 2.58553843e-03 3.24689061e-03 9.07334499e-03
      4.69375541e-03 3.34678940e-03 1.92815892e-03 3.66968685e-03
      1.00635607e-02 1.33164623e-03 1.22521969e-03 2.22315779e-03
      1.02096861e-02 3.92837636e-03 3.42569384e-03 1.92922086e-03
      1.03879860e-02 4.17941343e-03 1.29749870e-03 1.85666303e-03
      2.66386010e-03 1.10310121e-02 4.69130091e-03 2.95251980e-03
      2.13767635e-03 4.76649590e-03 2.42668437e-03 1.51564972e-03
      1.71981880e-03 2.29901797e-03 1.02450177e-02 3.92576260e-03
      3.55487666e-03 2.13851244e-03 2.95748049e-03 1.35780976e-03
      1.31388498e-03 1.93174789e-03 3.62381455e-03 1.13627557e-02
      4.88139596e-03 3.64757515e-03 2.17074063e-03 2.98133632e-03
      8.03533848e-03 1.27451599e-03 1.77082431e-03 3.51656741e-03
      1.20365089e-02 5.89235220e-03 3.05181509e-03 2.29833950e-03
      8.09555035e-03 8.94446578e-03 1.84531393e-03 1.88115600e-03
      2.52698851e-03 1.19328890e-02 5.38542634e-03 3.25216260e-03
      2.53722235e-03 8.69071204e-03 1.18025963e-03 1.21217337e-03
      1.62439293e-03 4.21441719e-03 1.24357762e-02 5.27991727e-03
      2.88746716e-03 2.54980428e-03 2.53499183e-03 2.76156352e-03
      1.65825605e-03 1.75766181e-03 2.84323469e-03 1.25661008e-02
      5.87193575e-03 4.11027949e-03 2.34898040e-03 2.62855878e-03
      1.34574599e-03 5.70629374e-04 5.43129514e-04 9.86346276e-04
      6.59997016e-03 1.58182730e-03 1.36852800e-03 1.86142698e-03
      1.75809558e-03 1.48441887e-03 1.11463375e-03 1.53109862e-03
      1.45333924e-03 6.79569552e-03 1.82800530e-03 1.72378239e-03
      1.92750513e-03 1.66341651e-03 2.33037747e-03 9.64608276e-04
      1.21176033e-03 1.21743837e-03 6.05550036e-03 1.92344573e-03
      2.13172915e-03 2.63220700e-03 2.70553236e-03 2.39970745e-03
      2.98733450e-03 3.24460329e-03 2.93490523e-03 6.64569158e-03
      2.07616715e-03 2.36749230e-03 3.31332418e-03 2.77299643e-03
      7.02619262e-04 7.41829805e-04 1.37264840e-03 1.21786154e-03
      5.05850324e-03 1.50249503e-03 1.44465652e-03 1.87229645e-03
      1.17874227e-03 1.25130196e-03 2.59881257e-03 3.37555632e-03
      1.55797915e-03 6.43239263e-03 1.20390439e-03 1.11135503e-03
      1.90222450e-03 1.63549045e-03 1.42779958e-03 2.09343247e-03
      2.59065442e-03 1.38482417e-03 5.56174293e-03 1.33819657e-03
      2.16848194e-03 3.01102665e-03 2.19527981e-03 1.61384919e-03
      2.66165216e-03 2.96911201e-03 1.53212273e-03 5.94051648e-03
      1.58804550e-03 2.77616060e-03 2.93039973e-03 2.12259265e-03
      1.59640319e-03 2.30563059e-03 2.40096357e-03 1.11457985e-03
      5.47019253e-03 1.29026035e-03 1.76647457e-03 1.51840551e-03
      1.14883424e-03 2.73777358e-03 2.75120256e-03 2.23700982e-03
      1.21078035e-03 1.00643663e-02 2.21628137e-03 2.98736221e-03
      1.65124715e-03 2.10150797e-03 1.65981881e-03 2.24860897e-03
      2.52427952e-03 1.14585133e-03 5.36524551e-03 1.92420755e-03
      2.46509444e-03 1.68818014e-03 1.54111336e-03 2.26387056e-03
      2.41813809e-03 2.06354097e-03 1.14582898e-03 1.74424760e-02
      3.20713781e-03 3.49649857e-03 1.59416103e-03 1.61425269e-03
      3.44973803e-03 2.55008088e-03 2.12646555e-03 1.09993073e-03
      1.19790528e-02 2.07086653e-03 3.15660797e-03 1.63378078e-03
      2.22403742e-03 5.57615701e-03 2.27322197e-03 1.65920903e-03
      1.02283224e-03 6.99747074e-03 8.66972725e-04 4.15936625e-03
      2.35743588e-03 4.38484643e-03 2.49099103e-03 2.22903467e-03
      1.61545735e-03 1.06404081e-03 1.29010230e-02 2.86617619e-03
      2.98176333e-03 1.59529399e-03 1.55028899e-03 3.48744844e-03
      1.86883053e-03 1.66271301e-03 1.07126764e-03 7.05699390e-03
      1.43848301e-03 3.06604686e-03 1.88539876e-03 2.62257596e-03
      7.12975115e-03 2.15238705e-03 1.50416372e-03 1.11784530e-03
      6.51100976e-03 1.02255272e-03 4.05106042e-03 2.32095784e-03
      5.93994791e-03 7.30754947e-03 2.48079328e-03 2.57380493e-03
      1.08584552e-03 6.37705438e-03 8.84191075e-04 1.80853554e-03
      1.36898179e-03 6.33651856e-03 3.87993525e-03 2.04870128e-03
      1.66552712e-03 1.35576294e-03 6.30288338e-03 1.01983279e-03
      2.86970660e-03 2.39415769e-03 3.00632766e-03 3.08560021e-03
      2.05159630e-03 1.56404020e-03 1.39023934e-03 2.42800429e-03
      9.22528852e-04 2.14109267e-03 2.21810350e-03 2.39062356e-03
      7.16273161e-03 3.83518869e-03 6.79939846e-03 1.03330659e-03
      6.67956471e-03 1.28867861e-03 1.95825635e-03 1.71333109e-03
      6.66047679e-03 5.81673393e-03 3.58515861e-03 6.94937957e-03
      1.30233774e-03 1.37346182e-02 1.11462967e-03 2.09052768e-03
      1.71891460e-03 4.99051670e-03 2.93795206e-03 1.74483575e-03
      1.95276551e-03 1.21104845e-03 2.87664845e-03 1.17374049e-03
      1.79274543e-03 1.39260711e-03 2.60673859e-03 3.08536785e-03
      2.14148290e-03 2.29109870e-03 1.23868941e-03 8.54390487e-03
      7.22053752e-04 1.84301531e-03 1.66928163e-03 2.39732373e-03
      8.00704025e-03 3.81011399e-03 7.82103464e-03 1.50198187e-03
      1.13753155e-02 5.72326477e-04 2.21595028e-03 1.68879598e-03
      7.28144404e-03 4.62962221e-03 2.39063753e-03 3.15888156e-03
      1.28575857e-03 9.73498449e-03 5.59835054e-04 1.69819721e-03
      1.61167805e-03 4.11053188e-03 3.29587562e-03 2.10374501e-03
      2.45444756e-03 1.25802658e-03 3.70427454e-03 4.86362405e-04
      1.81370496e-03 1.63802959e-03 2.48749624e-03 3.55706946e-03
      1.65648223e-03 2.02587829e-03 1.00760546e-03 7.61225447e-03
      5.54941071e-04 1.46694540e-03 1.62766618e-03 3.10492516e-03
      8.93581938e-03 1.68516941e-03 1.73320668e-03 1.98148633e-03
      1.37125738e-02 5.79956279e-04 1.51097123e-03 1.32289354e-03
      8.22658557e-03 4.29729605e-03 1.19119789e-03 1.24046439e-03
      1.48697291e-03 7.04508321e-03 1.22841250e-03 1.78945495e-03
      1.40745635e-03 3.20681022e-03 3.99156800e-03 1.79262750e-03
      1.79391925e-03 1.64376409e-03 6.71140663e-03 5.79675601e-04
      1.28828653e-03 1.77017949e-03 3.13410396e-03 8.77820794e-03
      2.89822114e-03 4.37573344e-03 1.45081326e-03 1.47831468e-02
      1.21791649e-03 1.52016559e-03 1.31024246e-03 7.06783170e-03
      3.73183121e-03 8.64495465e-04 7.25395861e-04 9.31714603e-04
      6.01851847e-03 1.80605671e-03 1.55903574e-03 8.63092253e-04
      2.63200840e-03 4.48180502e-03 1.65958947e-03 1.86075980e-03
      1.20939885e-03 1.20814480e-02 2.31371378e-03 4.34881868e-03
      2.37857690e-03 3.62415239e-03 5.93876140e-03 3.12752882e-03
      1.86517078e-03 1.10454916e-03 6.95815030e-03 1.25443575e-03
      1.66596158e-03 1.18746818e-03 4.19157278e-03 9.40871425e-03
      4.88305604e-03 4.34335740e-03 1.87431520e-03 1.04960706e-02
      1.86340837e-03 4.76068212e-03 3.48423957e-03 7.04594748e-03
      3.28869885e-03 8.25501920e-04 8.16443819e-04 7.09233165e-04
      6.37129135e-03 2.07623164e-03 1.40717614e-03 8.60846078e-04
      2.64509069e-03 3.75913340e-03 2.21588486e-03 1.42009836e-03
      2.81545566e-03 1.09366272e-02 7.53285130e-03 2.59995717e-03
      2.39744713e-03 2.64436053e-03 4.50694002e-03 2.56159646e-03
      1.30700017e-03 1.35427702e-03 6.79078232e-03 1.83556275e-03
      1.11145643e-03 7.63488235e-04 2.99268356e-03 5.30023733e-03
      3.47845489e-03 2.23069033e-03 3.01435171e-03 1.12745343e-02
      6.83588814e-03 3.11404769e-03 1.83297333e-03 3.25388322e-03
      2.66112085e-03 2.26208032e-03 8.60697648e-04 1.28902250e-03
      8.62666313e-03 3.93141620e-03 2.15285691e-03 1.40355993e-03
      2.62745027e-03 3.87176336e-03 2.57972116e-03 1.39896583e-03
      1.65035704e-03 8.85004830e-03 4.62570693e-03 3.36996559e-03
      2.34596618e-03 3.64497676e-03 4.24629496e-03 2.71587633e-03
      1.62463752e-03 2.07703118e-03 8.90753325e-03 4.46558930e-03
      3.21909110e-03 2.20220862e-03 3.60375387e-03 5.74985705e-03
      3.25522362e-03 1.98434619e-03 2.04645004e-03 9.36561264e-03
      4.62590158e-03 4.49533947e-03 3.86211905e-03 6.61101984e-03
      4.17247927e-03 2.37942045e-03 2.39024241e-03 2.10013171e-03
      7.86798541e-03 3.41652450e-03 3.25345038e-03 1.88130524e-03
      3.95286456e-03 3.88132571e-03 2.54160049e-03 3.26831941e-03
      2.15617404e-03 7.79938651e-03 3.16304411e-03 2.07805517e-03
      1.31342618e-03 3.33827734e-03 6.52815169e-03 3.27433064e-03
      1.72816415e-03 2.27182382e-03 7.96809979e-03 3.38784093e-03
      3.69928405e-03 3.78748472e-03 6.03160402e-03 6.57949643e-03
      3.86181590e-03 2.08711787e-03 1.92272826e-03 7.85004254e-03
      4.11453471e-03 2.19708611e-03 2.82944762e-03 6.50490681e-03
      3.35159386e-03 2.54062144e-03 1.35399785e-03 1.44734210e-03
      8.54813773e-03 3.18618701e-03 1.56207092e-03 1.33475836e-03
      2.80743279e-03 4.03530337e-03 3.26998043e-03 1.38650939e-03
      2.00488535e-03 8.10637698e-03 2.22698157e-03 1.41945772e-03
      2.06760666e-03 3.44216148e-03 5.67481341e-03 4.14230255e-03
      1.84404559e-03 1.66883750e-03 8.49774200e-03 4.96076979e-03
      2.34726304e-03 1.75175513e-03 4.22415696e-03 5.90817817e-03
      4.68140282e-03 3.00077372e-03 4.32273140e-03 8.12174100e-03
      3.74950212e-03 1.83933636e-03 1.69943261e-03 4.61379532e-03
      3.55031877e-03 3.31122708e-03 2.13182298e-03 1.92169426e-03
      7.17948936e-03 2.14192411e-03 1.95338507e-03 1.68965419e-03
      3.16035235e-03 4.21397807e-03 3.99330817e-03 3.22769629e-03
      3.33498069e-03 7.43405148e-03 1.98403071e-03 2.02951557e-03
      1.67660974e-03 3.19929188e-03 6.45313319e-03 4.64340905e-03
      3.41199571e-03 3.32117802e-03 7.31182471e-03 2.33560009e-03
      3.75797693e-03 2.16474477e-03 5.40283788e-03 6.76644128e-03
      6.13340316e-03 5.15620317e-03 2.97089736e-03 7.49081466e-03
      3.42939934e-03 4.57743742e-03 3.30625568e-03 5.93021512e-03
      4.70568938e-03 4.02299268e-03 2.67172186e-03 3.14551522e-03
      7.56371533e-03 1.78960036e-03 1.75414572e-03 1.34003279e-03
      3.18008987e-03 3.53141758e-03 3.59813427e-03 3.14381206e-03
      2.45231949e-03 7.66185485e-03 3.60784330e-03 2.29398836e-03
      9.38271813e-04 3.03713209e-03 6.12021843e-03 5.85962133e-03
      4.73859813e-03 2.61863717e-03 7.68469134e-03 4.32892656e-03
      3.38030024e-03 3.89588624e-03 5.07685682e-03 3.94333666e-03
      5.00485487e-03 4.15304396e-03 2.65352055e-03 7.86028802e-03
      4.59709251e-03 2.45393487e-03 1.86851504e-03 4.14947374e-03
      2.21732073e-03 2.16139201e-03 2.21373560e-03 3.15720937e-03
      8.99119955e-03 3.72837321e-03 2.45247665e-03 1.10508804e-03
      2.75461492e-03 1.19941251e-03 1.47426571e-03 2.00872566e-03
      5.07466355e-03 9.98610724e-03 4.32093069e-03 2.85811815e-03
      2.61766929e-03 3.06940032e-03 3.03361192e-03 3.36255319e-03
      3.42856813e-03 4.00556717e-03 9.16042272e-03 3.39083932e-03
      2.36275815e-03 1.40318787e-03 3.73926782e-03 2.13131122e-03
      2.48694257e-03 2.48350133e-03 5.74426167e-03 1.05904639e-02
      4.97218221e-03 3.42630199e-03 2.70167645e-03 3.45341209e-03
      1.82504184e-03 1.58066826e-03 1.65973243e-03 3.91436974e-03
      1.02245929e-02 5.29896375e-03 3.70067195e-03 2.95488257e-03
      3.08906403e-03 4.36167791e-03 2.17526825e-03 1.92689511e-03
      2.74986099e-03 1.06774159e-02 4.37179534e-03 3.71732190e-03
      2.14660587e-03 4.85332217e-03 2.15284899e-03 1.87841395e-03
      1.67077978e-03 3.52195068e-03 1.10230139e-02 5.72009291e-03
      4.54183808e-03 4.04733606e-03 3.96882743e-03 4.19015158e-03
      1.50391692e-03 2.11824849e-03 2.63122143e-03 9.39158816e-03
      4.79748379e-03 4.39657923e-03 3.58279282e-03 5.07625379e-03
      1.63220381e-03 7.40408606e-04 1.30610343e-03 9.05776396e-04
      5.31967683e-03 1.13925361e-03 1.59704464e-03 1.49033067e-03
      2.09947140e-03 1.65618572e-03 2.02223798e-03 2.95972102e-03
      1.62426115e-03 5.76663902e-03 1.13536243e-03 2.11492507e-03
      2.15611281e-03 2.24711793e-03 2.18237122e-03 2.06140080e-03
      2.52916850e-03 1.35739672e-03 5.61411073e-03 9.40553960e-04
      9.64093430e-04 1.32806762e-03 2.37099919e-03 2.35349732e-03
      2.02915887e-03 2.61892681e-03 1.65811484e-03 5.92905143e-03
      1.12147816e-03 1.67589157e-03 1.90019899e-03 2.71077594e-03
      1.40250183e-03 1.71504088e-03 2.27265665e-03 1.28761120e-03
      4.66464460e-03 1.08584680e-03 1.71840878e-03 1.98814762e-03
      1.95778231e-03 1.60738267e-03 2.00878340e-03 2.40995665e-03
      1.12079841e-03 5.92471287e-03 1.41864363e-03 2.16276571e-03
      1.96486898e-03 2.01720325e-03 2.09625065e-03 1.85766816e-03
      2.40515498e-03 1.27149757e-03 5.62869944e-03 1.30276650e-03
      1.62147835e-03 1.42109464e-03 2.25416315e-03 1.98663725e-03
      2.35301047e-03 2.38503888e-03 1.02056446e-03 6.35297131e-03
      1.46055303e-03 1.95182196e-03 1.49942259e-03 2.40737246e-03
      1.13900274e-03 1.98733318e-03 2.10499903e-03 1.00271753e-03
      5.57845272e-03 2.34978925e-03 2.82980804e-03 2.01117061e-03
      1.50843675e-03 1.34567148e-03 1.71742192e-03 1.75851979e-03
      1.16026273e-03 1.47240022e-02 2.15232885e-03 2.69946712e-03
      2.08523264e-03 1.62497314e-03 1.83909992e-03 2.29968340e-03
      1.95400300e-03 1.06040109e-03 6.34991890e-03 1.79228710e-03
      2.48561101e-03 2.33481545e-03 2.01633945e-03 1.91899657e-03
      1.79774885e-03 1.66975206e-03 9.54969728e-04 1.42153464e-02
      1.84896367e-03 2.75564240e-03 2.81871343e-03 2.75035459e-03
      2.09651212e-03 1.44216174e-03 1.44311890e-03 1.07392413e-03
      1.33586517e-02 2.12810445e-03 2.37616990e-03 1.84773211e-03
      2.08858820e-03 2.38409475e-03 1.56173494e-03 1.34115410e-03
      1.08455855e-03 7.12772552e-03 1.25080394e-03 2.14164611e-03
      2.26733857e-03 1.97528931e-03 2.54338374e-03 1.55262626e-03
      1.67545781e-03 9.19126673e-04 1.28500666e-02 1.29130296e-03
      1.88480341e-03 2.24017142e-03 3.08071519e-03 3.33947898e-03
      2.04628939e-03 2.75008613e-03 1.00767054e-03 7.05140876e-03
      1.32285012e-03 2.41721305e-03 2.40453333e-03 3.38655105e-03
      2.79933866e-03 1.96739868e-03 1.53150188e-03 1.31980318e-03
      6.35479018e-03 7.37643742e-04 2.16066954e-03 2.08810577e-03
      1.85370527e-03 2.31123017e-03 1.86538300e-03 1.75594632e-03
      1.30038231e-03 9.73647402e-04 5.52243146e-04 1.52093044e-03
      1.70657272e-03 1.51911157e-03 5.64744975e-03 2.92390329e-03
      4.94110910e-03 1.37671398e-03 1.04550943e-02 1.16324844e-03
      2.31212028e-03 2.29336391e-03 4.98424238e-03 3.42390756e-03
      2.28868728e-03 2.47168774e-03 1.31335307e-03 2.99500814e-03
      6.54394738e-04 2.08881125e-03 2.11637514e-03 2.67317495e-03
      2.41579651e-03 1.73403812e-03 1.91947981e-03 1.17436016e-03
      1.61140354e-03 5.65991213e-04 1.13085599e-03 1.72244746e-03
      1.71506277e-03 2.92835035e-03 1.70685048e-03 1.92263559e-03
      1.11989828e-03 7.93583039e-03 5.13791398e-04 8.46637646e-04
      1.24041911e-03 1.93634548e-03 8.54020473e-03 1.98966335e-03
      2.06966023e-03 1.31810142e-03 1.74158614e-03 6.43619860e-04
      2.24711397e-03 2.19980092e-03 7.78886769e-03 6.98937196e-03
      3.43449670e-03 6.12819660e-03 1.53400109e-03 1.49714174e-02
      8.50773940e-04 2.02390994e-03 2.39348924e-03 5.81266405e-03
      3.12670227e-03 1.42671249e-03 1.62619003e-03 1.07668573e-03
      3.09481355e-03 5.25900512e-04 9.23266285e-04 1.33130362e-03
      2.12555821e-03 3.36428592e-03 1.65805500e-03 9.04027838e-04
      9.26935580e-04 7.18404865e-03 4.59843199e-04 9.61072627e-04
      1.12980092e-03 2.51638028e-03 4.75717988e-03 3.46965040e-03
      4.17026272e-03 1.34832074e-03 4.24976740e-03 1.21678424e-03
      2.36282870e-03 2.25957436e-03 3.37941688e-03 1.00136762e-02
      4.90342686e-03 6.82253763e-03 1.08160125e-03 8.53007939e-03
      9.46471118e-04 1.88615883e-03 2.14313250e-03 8.41181446e-03
      3.55081167e-03 1.44224777e-03 7.86266464e-04 8.90194497e-04
      6.26969477e-03 5.48015116e-04 1.12870173e-03 1.22785429e-03
      2.61689979e-03 4.39163810e-03 2.43478362e-03 1.31160114e-03
      9.18094360e-04 8.08321312e-03 6.79668039e-04 1.37678918e-03
      1.14912621e-03 2.69561564e-03 8.37016385e-03 4.41092672e-03
      3.00424430e-03 9.76608368e-04 6.78347424e-03 5.85023197e-04
      1.71513099e-03 1.75501197e-03 6.75655250e-03 8.94323550e-03
      6.56444067e-03 5.06409584e-03 1.13979972e-03 9.53113660e-03
      6.72821247e-04 1.63825043e-03 2.81270337e-03 6.83435192e-03
      4.94097499e-03 2.67505995e-03 1.99376117e-03 1.07066752e-03
      7.31749693e-03 5.24203468e-04 1.05968548e-03 9.89659107e-04
      2.86512054e-03 7.78490305e-03 5.08431485e-03 3.99968075e-03
      1.73687865e-03 7.58558325e-03 1.67579390e-03 1.90008490e-03
      1.93275022e-03 4.27799486e-03 7.88849499e-03 5.87475207e-03
      4.51079244e-03 1.83483365e-03 8.86202045e-03 3.72300769e-04
      9.02195985e-04 1.40208553e-03 4.62159747e-03 8.70215241e-03
      7.33264768e-03 4.67833783e-03 3.03098653e-03 8.68113060e-03
      1.36165670e-03 2.13602651e-03 2.04607099e-03 5.16880443e-03
      5.36921807e-03 3.18462378e-03 2.16923887e-03 1.25887303e-03
      6.53654337e-03 1.40162092e-03 1.23174186e-03 1.13566732e-03
      2.71471008e-03 7.12196156e-03 4.36558528e-03 3.25693283e-03
      3.52589670e-03 1.03429835e-02 5.25178108e-03 5.51402289e-03
      3.85300280e-03 4.42831870e-03 6.55923830e-03 4.79571242e-03
      2.65489845e-03 1.46631175e-03 6.10991055e-03 1.18215161e-03
      1.49965554e-03 1.47521554e-03 3.67948436e-03 7.93909654e-03
      5.05859358e-03 3.47388024e-03 2.21414189e-03 7.96394050e-03
      1.51948771e-03 2.34739576e-03 3.15102027e-03 5.24572097e-03
      5.02249133e-03 2.56397645e-03 1.24706211e-03 1.42486708e-03
      8.29673000e-03 3.87529121e-03 4.18091100e-03 2.92348932e-03
      4.60769003e-03 6.66951062e-03 2.61166925e-03 1.40280440e-03
      1.83228182e-03 7.78914709e-03 4.08148626e-03 5.02815936e-03
      4.94285347e-03 5.94596285e-03 5.69857145e-03 2.94511067e-03
      1.47368724e-03 1.20030250e-03 5.36511978e-03 9.33342963e-04
      1.60812587e-03 1.59434415e-03 4.02628491e-03 6.25466229e-03
      3.06800148e-03 1.90666516e-03 1.82482530e-03 5.92004880e-03
      2.08392600e-03 2.77409586e-03 3.80103011e-03 6.62947074e-03
      6.87198108e-03 2.76643457e-03 1.03103125e-03 1.43148017e-03
      5.63300727e-03 1.73417304e-03 2.01500137e-03 4.37763706e-03
      6.13467488e-03 7.37282308e-03 4.22437023e-03 1.36612519e-03
      1.46259926e-03 6.27988856e-03 2.33545038e-03 1.86627544e-03
      4.35062638e-03 6.73197117e-03 5.08578448e-03 2.95483368e-03
      1.38909207e-03 2.06876034e-03 5.27917407e-03 1.53160258e-03
      2.14229547e-03 3.56873241e-03 6.75480859e-03 7.12582516e-03
      4.36866842e-03 2.41495902e-03 2.26884498e-03 5.55434404e-03
      1.47434464e-03 2.80926633e-03 4.19939775e-03 6.80753635e-03
      6.51398487e-03 5.55485254e-03 1.91436580e-03 1.53310248e-03
      6.57424936e-03 3.37349134e-03 2.37916689e-03 2.54082750e-03
      5.03688026e-03 5.51356329e-03 5.33490255e-03 3.32494965e-03
      3.14867636e-03 6.84553292e-03 2.71447189e-03 1.97546347e-03
      2.25978880e-03 4.53842850e-03 6.69338135e-03 5.50844753e-03
      3.03630950e-03 2.34768004e-03 5.57067664e-03 1.85816817e-03
      2.76422594e-03 2.90438626e-03 5.25567215e-03 6.78174896e-03
      5.61474636e-03 3.56330001e-03 3.21289967e-03 5.90759981e-03
      2.45733885e-03 2.52690143e-03 3.76155041e-03 6.27999008e-03
      5.37323114e-03 4.01810138e-03 3.01155960e-03 2.35612947e-03
      6.39186427e-03 1.88897492e-03 2.51033250e-03 2.33700266e-03
      5.84914675e-03 5.53976092e-03 4.19161143e-03 3.73762986e-03
      1.42127858e-03 7.01368041e-03 3.49403825e-03 3.55418934e-03
      3.10397800e-03 5.67495963e-03 6.19551912e-03 5.24124736e-03
      2.67731096e-03 1.31105189e-03 5.60628902e-03 1.71992532e-03
      2.55456707e-03 4.84570302e-03 6.62625162e-03 6.22280873e-03
      4.08390909e-03 2.23727874e-03 1.40268705e-03 6.42765965e-03
      3.22102290e-03 3.67066590e-03 4.94215032e-03 6.27129013e-03
      4.55454690e-03 4.24693758e-03 3.53608257e-03 1.52800058e-03
      8.59203469e-03 3.92966345e-03 2.61657848e-03 2.54380121e-03
      4.17323271e-03 4.34666686e-03 3.99462832e-03 3.18661937e-03
      1.82935316e-03 7.78407650e-03 2.72292295e-03 1.92099495e-03
      1.93962397e-03 4.53893328e-03 6.79452159e-03 3.84976668e-03
      2.50591920e-03 1.93717377e-03 7.06754718e-03 3.31931608e-03
      2.58248253e-03 3.70698911e-03 6.60653599e-03 6.69407705e-03
      3.12615209e-03 2.26529036e-03 1.58854539e-03 6.64318912e-03
      2.22980254e-03 2.10075895e-03 2.70428299e-03 6.86484436e-03
      3.99631495e-03 4.10504080e-03 4.13954677e-03 3.12774093e-03
      8.37780815e-03 2.85927090e-03 2.41621700e-03 1.30846060e-03
      4.23539802e-03 4.33098152e-03 3.88911460e-03 3.45505751e-03
      4.04795818e-03 9.81796440e-03 4.08361619e-03 3.36417882e-03
      1.72258425e-03 3.97777604e-03 5.47909318e-03 4.57831146e-03
      1.93850941e-03 2.01390870e-03 6.95877103e-03 2.22488283e-03
      2.38076295e-03 2.09441432e-03 5.68937324e-03 1.22421710e-02
      4.47716611e-03 1.97976176e-03 2.27497728e-03 9.31336731e-03
      3.19191604e-03 4.16527921e-03 3.39294551e-03 1.22357989e-02
      4.04836377e-03 3.71884904e-03 2.79425806e-03 2.73869117e-03
      1.08260429e-02 4.65427106e-03 3.97652900e-03 2.36639986e-03
      3.74167296e-03 3.51799978e-03 3.20013589e-03 3.08019551e-03
      2.48086778e-03 8.06445163e-03 4.42027021e-03 3.74495750e-03
      2.73390627e-03 4.16228082e-03 1.26101216e-02 3.69416899e-03
      1.67488330e-03 1.85577245e-03 8.93785339e-03 3.75692733e-03
      4.62005427e-03 3.33463028e-03 1.22172078e-02 1.06368950e-02
      3.85469571e-03 1.74600969e-03 1.81201508e-03 7.88638741e-03
      5.02121914e-03 3.93105485e-03 2.46144645e-03 1.08073121e-02
      2.05141446e-03 2.14834395e-03 2.34527537e-03 1.41719927e-03
      5.52380085e-03 6.83623017e-04 6.47921406e-04 1.52287807e-03
      2.06812564e-03 2.30464549e-03 2.05161888e-03 2.47927103e-03
      1.43379823e-03 5.98588958e-03 1.08638604e-03 1.20015838e-03
      1.65243458e-03 2.46691261e-03 1.68035843e-03 2.10914155e-03
      2.60476558e-03 1.60315086e-03 5.54302149e-03 9.41360195e-04
      8.86004185e-04 2.50011473e-03 2.38171732e-03 2.39113928e-03
      2.05375301e-03 2.74659926e-03 1.39887352e-03 5.89147164e-03
      1.33428164e-03 1.49390649e-03 2.41226237e-03 2.80723535e-03
      2.31420179e-03 2.45853327e-03 2.49673775e-03 1.61911221e-03
      5.12302108e-03 1.16938096e-03 9.82623664e-04 1.37652596e-03
      2.20858562e-03 2.07521650e-03 2.28938088e-03 2.20716442e-03
      1.18827738e-03 6.84251729e-03 1.21384091e-03 1.14552956e-03
      1.56771287e-03 2.25875806e-03 2.04979768e-03 1.90693827e-03
      2.57967948e-03 1.22161827e-03 5.53486682e-03 1.41528610e-03
      1.18291995e-03 2.18083896e-03 2.55836430e-03 1.84919802e-03
      1.73469365e-03 1.84935157e-03 1.33946200e-03 6.96462486e-03
      1.47077267e-03 1.17884413e-03 2.30531557e-03 2.71315966e-03
      1.68863789e-03 2.04795715e-03 1.73487037e-03 1.16791646e-03
      6.30192598e-03 1.15462637e-03 1.97589304e-03 2.18673493e-03
      2.16970779e-03 3.89126339e-03 1.77048577e-03 1.55599497e-03
      1.06905086e-03 1.69479977e-02 1.30710576e-03 2.57906527e-03
      2.58533517e-03 4.70232219e-03 1.43278507e-03 1.51375530e-03
      1.64579123e-03 1.50242483e-03 6.34390954e-03 1.43727020e-03
      1.58281415e-03 2.56146584e-03 2.49987515e-03 1.79449050e-03
      1.46901479e-03 2.10303930e-03 1.83853332e-03 5.95562998e-03
      2.50786915e-03 2.91302428e-03 2.92974617e-03 2.75771017e-03
      2.72757257e-03 1.65089942e-03 1.96852256e-03 9.60704696e-04
      1.22522330e-02 9.61142185e-04 1.77340780e-03 2.05953442e-03
      3.00950208e-03 5.46773197e-03 2.51930486e-03 5.07408520e-03
      1.19457848e-03 6.65867003e-03 1.16024434e-03 2.18810770e-03
      2.17596814e-03 5.21264179e-03 2.38817208e-03 2.15999270e-03
      2.12161103e-03 1.41894678e-03 8.44000746e-03 1.55315921e-03
      2.17614975e-03 2.14582821e-03 2.34119105e-03 4.47720615e-03
      3.38312658e-03 3.25264246e-03 1.28341047e-03 6.75413013e-03
      1.46472931e-03 2.26614205e-03 2.09089951e-03 4.41261847e-03
      4.49784473e-03 1.70631264e-03 3.51390406e-03 1.04473683e-03
      5.20948088e-03 1.27130572e-03 2.42646551e-03 2.09470373e-03
      3.91311757e-03 4.64310125e-03 1.49276271e-03 1.85683696e-03
      9.74399562e-04 4.53809416e-03 5.49017976e-04 2.14349641e-03
      2.23488547e-03 3.97720002e-03 5.29426150e-03 2.51515512e-03
      3.10612516e-03 9.60393168e-04 5.33596938e-03 1.28765276e-03
      1.99638470e-03 2.16470310e-03 4.71871579e-03 1.25060808e-02
      3.80148506e-03 5.84048964e-03 9.63654835e-04 1.09091299e-02
      8.76850798e-04 3.40133486e-03 3.25181312e-03 1.19641861e-02
      4.08332283e-03 1.53701147e-03 1.44525152e-03 1.03509193e-03
      3.10806045e-03 4.99553920e-04 2.59287260e-03 2.66832369e-03
      3.40913958e-03 5.98911336e-03 3.09028034e-03 2.34262925e-03
      1.27660856e-03 9.86947306e-03 5.77786821e-04 3.32428934e-03
      2.85363733e-03 4.97723790e-03 7.61738559e-03 2.50324933e-03
      2.84915743e-03 1.05192559e-03 9.83773544e-03 6.09593117e-04
      6.63006213e-03 5.21237683e-03 7.32170185e-03 1.03752296e-02
      4.94245673e-03 5.06232912e-03 1.16311654e-03 1.66424606e-02
      5.07201301e-04 7.40348361e-03 6.03741733e-03 1.02559505e-02
      5.46117267e-03 3.07646859e-03 2.91768042e-03 1.04563171e-03
      4.60008206e-03 8.14490428e-04 1.91140163e-03 2.15797778e-03
      4.23513819e-03 6.76322915e-03 4.13563428e-03 3.91075388e-03
      8.99934385e-04 8.29488225e-03 6.18635735e-04 1.23329868e-03
      1.78124628e-03 4.86054830e-03 1.00117112e-02 3.89620475e-03
      3.97132197e-03 9.75973031e-04 1.14940871e-02 4.44032776e-04
      7.33811874e-03 5.45024499e-03 9.45245568e-03 9.56471823e-03
      5.00731170e-03 4.12064651e-03 9.55549651e-04 1.44432886e-02
      4.51666681e-04 4.97388607e-03 3.57994298e-03 7.59827811e-03
      6.49903994e-03 4.46714833e-03 3.43157933e-03 9.13017138e-04
      5.74743887e-03 4.18163487e-04 1.21891545e-03 1.49639312e-03
      4.67127468e-03 7.05686770e-03 5.14363218e-03 3.86452884e-03
      1.00554910e-03 6.12309482e-03 4.49163083e-04 9.60213016e-04
      1.26433279e-03 4.71078185e-03 1.06321173e-02 4.70723538e-03
      3.43081681e-03 9.52337170e-04 1.63402800e-02 4.51986707e-04
      4.36920905e-03 3.36980540e-03 8.17035697e-03 7.48446444e-03
      3.94612784e-03 4.08645766e-03 1.09695620e-03 7.72198197e-03
      5.76642458e-04 2.05224310e-03 2.86655640e-03 5.31695923e-03
      6.98198052e-03 5.28703211e-03 3.74768046e-03 1.36317196e-03
      7.11990288e-03 6.17325015e-04 6.79126882e-04 1.03771489e-03
      3.94866802e-03 7.50018982e-03 6.33693254e-03 4.05473541e-03
      2.15212326e-03 7.42326444e-03 1.31136738e-03 1.72569661e-03
      1.02738407e-03 3.65481852e-03 6.39798818e-03 3.39041604e-03
      4.09721537e-03 1.38340564e-03 8.26279633e-03 9.89658292e-04
      1.75305002e-03 2.03400338e-03 4.71370481e-03 7.52793532e-03
      6.14912575e-03 5.40967938e-03 2.00724648e-03 9.80592519e-03
      1.24169572e-03 2.23177532e-03 1.56827655e-03 4.94269514e-03
      7.19152670e-03 5.54077933e-03 3.96037009e-03 1.06374617e-03
      5.93949342e-03 1.37965579e-03 1.45714206e-03 9.70990281e-04
      3.88186751e-03 7.87351001e-03 5.86396689e-03 4.84310137e-03
      1.32241705e-03 6.31661713e-03 1.35271298e-03 1.64458004e-03
      1.16428430e-03 5.69477817e-03 6.95319055e-03 6.25289977e-03
      4.88825934e-03 1.27949123e-03 8.33234005e-03 1.64049468e-03
      1.98555505e-03 1.44117489e-03 3.97249917e-03 7.20522879e-03
      5.51418494e-03 5.10711968e-03 1.06704258e-03 7.84724206e-03
      1.98954367e-03 2.75580073e-03 1.20657356e-03 5.04686264e-03
      7.12250685e-03 4.94430168e-03 3.89984157e-03 1.12258561e-03
      5.66913327e-03 9.76319658e-04 1.97950983e-03 1.40476984e-03
      5.92839904e-03 6.53076125e-03 4.38239565e-03 3.08264093e-03
      4.64538345e-03 8.57326947e-03 2.91843270e-03 3.21016880e-03
      3.60011659e-03 6.13081409e-03 6.18994422e-03 4.14687535e-03
      3.36583145e-03 1.14566111e-03 6.17349427e-03 1.33086031e-03
      2.82265316e-03 1.27009477e-03 3.73390689e-03 5.50713763e-03
      4.23151860e-03 3.90728610e-03 1.87407748e-03 8.88835452e-03
      2.79280683e-03 3.84883420e-03 2.49308487e-03 3.97657230e-03
      3.42523819e-03 2.82170670e-03 2.08599493e-03 3.22153512e-03
      7.22998846e-03 1.75517728e-03 2.52301386e-03 2.77829124e-03
      3.60787474e-03 6.55972958e-03 5.73242456e-03 3.86842201e-03
      3.30957398e-03 7.61549128e-03 2.36999523e-03 4.46857000e-03
      4.40072827e-03 6.15605759e-03 3.91385891e-03 3.17387818e-03
      1.46218028e-03 1.56389852e-03 6.73751533e-03 2.22381903e-03
      3.14567587e-03 2.54790997e-03 2.81111593e-03 5.77946147e-03
      4.79289470e-03 2.42123916e-03 2.99199321e-03 7.58321863e-03
      4.02850704e-03 4.49758768e-03 4.20451118e-03 4.71482938e-03
      6.57968596e-03 6.08438486e-03 3.25553282e-03 2.84817489e-03
      5.90287056e-03 1.48431386e-03 3.29909613e-03 3.06268362e-03
      5.63675584e-03 6.63734926e-03 5.79590304e-03 4.24717832e-03
      3.30620003e-03 5.32503892e-03 1.94722053e-03 2.86268583e-03
      4.41776402e-03 6.34394726e-03 5.50719211e-03 4.12143907e-03
      1.60839828e-03 1.21063110e-03 5.87332249e-03 1.90024113e-03
      2.55277217e-03 2.38800352e-03 4.30764863e-03 1.24982763e-02
      5.59525657e-03 3.05591174e-03 3.15847783e-03 1.43503174e-02
      2.39338260e-03 3.02882469e-03 3.00920871e-03 1.19673321e-02
      5.91012975e-03 4.76332707e-03 2.75638676e-03 1.33383344e-03
      4.98766964e-03 1.43192662e-03 2.50893040e-03 3.73829482e-03
      6.36498770e-03 6.13411050e-03 4.36923373e-03 2.66585196e-03
      1.43119146e-03 6.20045653e-03 1.98496296e-03 2.99082976e-03
      4.17114096e-03 6.00054441e-03 6.77090185e-03 5.71660697e-03
      3.98304267e-03 2.39756354e-03 8.41730274e-03 2.36117304e-03
      2.72548152e-03 2.82625365e-03 7.11597223e-03 1.00451037e-02
      7.19519053e-03 1.05913254e-02 2.64993170e-03 1.44877471e-02
      2.26736511e-03 3.63591476e-03 3.78474174e-03 1.05259381e-02
      6.99555082e-03 3.87572823e-03 2.54212692e-03 1.72036968e-03
      6.76548667e-03 1.76290004e-03 2.47398298e-03 2.74936622e-03
      6.54678931e-03 7.26633240e-03 3.96793336e-03 2.93826545e-03
      1.41977251e-03 8.06071330e-03 1.97340525e-03 2.93450989e-03
      2.71920138e-03 7.29628839e-03 8.90926085e-03 6.84630172e-03
      7.69816199e-03 2.77582486e-03 1.20652281e-02 2.03505671e-03
      2.86830682e-03 3.52373929e-03 8.89496878e-03 1.01630744e-02
      8.11222102e-03 7.63624860e-03 2.89919856e-03 1.23582203e-02
      2.91758310e-03 4.13954584e-03 3.18470411e-03 1.01404088e-02
      6.79660589e-03 4.34593670e-03 2.27056840e-03 1.37387612e-03
      7.50122033e-03 2.68392754e-03 3.65092955e-03 2.87513575e-03
      7.12878164e-03 7.29015237e-03 3.95768601e-03 1.79845758e-03
      1.90638972e-03 9.01905354e-03 2.61787511e-03 4.51870402e-03
      3.54426960e-03 7.68918730e-03 9.86664928e-03 5.92853501e-03
      6.11753436e-03 2.38969992e-03 1.21109756e-02 4.40470176e-03
      5.14777005e-03 4.69681202e-03 9.54956282e-03 8.20241962e-03
      3.00892908e-03 3.80433165e-03 2.24553165e-03 1.34313041e-02
      5.00995200e-03 6.35275664e-03 4.25308989e-03 9.98993684e-03
      8.06804001e-03 2.39646155e-03 1.46503374e-03 2.25213054e-03
      1.00999121e-02 3.31509323e-03 5.78735257e-03 4.54975804e-03
      8.41319654e-03 8.20774585e-03 2.11068988e-03 2.07491522e-03
      2.63408897e-03 1.07256658e-02 4.74376278e-03 5.59445377e-03
      3.71274981e-03 8.74392502e-03 7.16946041e-03 1.54066412e-03
      1.96708157e-03 3.44802393e-03 1.33314170e-02 3.92771978e-03
      6.73399726e-03 3.80596053e-03 8.31163023e-03 8.12017731e-03
      2.03731866e-03 4.25557792e-03 3.75591405e-03 1.42994430e-02
      5.03434287e-03 7.33065698e-03 3.79517931e-03 8.66179448e-03
      1.17152766e-03 2.17444915e-03 2.32196436e-03 1.56266335e-03
      5.89864934e-03 1.57169381e-03 1.51288998e-03 2.47818674e-03
      2.28970591e-03 1.26795634e-03 1.82970159e-03 2.38404959e-03
      1.23087282e-03 5.89105533e-03 1.38372008e-03 1.87432137e-03
      2.80154636e-03 2.28872476e-03 1.53670041e-03 1.76810299e-03
      1.83045003e-03 1.14324177e-03 6.40151137e-03 2.69350992e-03
      1.61830196e-03 1.31306530e-03 1.48335961e-03 2.09059776e-03
      1.97740295e-03 2.04944471e-03 1.50480424e-03 6.49718801e-03
      1.83150847e-03 1.61000225e-03 1.42370944e-03 1.72606017e-03
      1.45179371e-03 1.79113576e-03 2.19272426e-03 1.06652884e-03
      5.35469688e-03 1.46413536e-03 2.02233973e-03 2.90741399e-03
      2.29924405e-03 1.86040543e-03 1.98290101e-03 1.86968595e-03
      1.08597684e-03 7.20659364e-03 1.31598383e-03 1.59207894e-03
      3.05504119e-03 2.89186905e-03 1.38934946e-03 1.91619562e-03
      2.28701578e-03 1.49665610e-03 6.37485785e-03 1.68875512e-03
      1.46470231e-03 1.85953721e-03 1.44234276e-03 2.01435224e-03
      2.26488989e-03 1.83257565e-03 1.04450330e-03 7.44510861e-03
      1.15853944e-03 1.74273027e-03 2.68821139e-03 2.27192324e-03
      1.31163665e-03 1.71424809e-03 1.60324574e-03 1.30613509e-03
      6.39022654e-03 1.78338855e-03 1.49663445e-03 2.53992970e-03
      2.35447637e-03 1.62463263e-03 1.64975529e-03 2.23601703e-03
      1.67335500e-03 6.14367658e-03 2.32556625e-03 2.37219688e-03
      3.00428132e-03 2.20741332e-03 1.98646099e-03 2.14608014e-03
      1.60931738e-03 1.28375622e-03 6.58509973e-03 1.59811927e-03
      1.36400247e-03 2.05695699e-03 1.96593185e-03 2.09292350e-03
      2.21549743e-03 2.42268201e-03 1.22734974e-03 6.35756552e-03
      1.91161153e-03 2.06083478e-03 2.39916216e-03 2.70603481e-03
      2.20757979e-03 1.75195409e-03 1.60781923e-03 1.11602119e-03
      7.31035555e-03 2.14416091e-03 2.40210746e-03 2.17383448e-03
      2.25604721e-03 9.03469417e-03 2.14266009e-03 1.39317184e-03
      1.01077673e-03 8.31737276e-03 1.94801588e-03 2.09531747e-03
      2.08196626e-03 8.91856104e-03 1.73128047e-03 1.59102923e-03
      1.34527299e-03 9.27398447e-04 7.36474851e-03 1.73141342e-03
      2.19422835e-03 2.07621604e-03 2.14887201e-03 2.81155645e-03
      1.57081720e-03 6.94998365e-04 9.47022170e-04 2.15452351e-03
      2.13672430e-03 2.67559034e-03 2.63430644e-03 2.90069310e-03
      4.90944227e-03 1.84593804e-03 1.23999140e-03 8.50201061e-04
      4.61703679e-03 1.32328854e-03 1.61540776e-03 1.98320486e-03
      4.49599931e-03 1.17736310e-02 2.78415158e-03 3.44162527e-03
      8.49422649e-04 1.05266767e-02 1.02112128e-03 5.09187207e-03
      3.37692327e-03 1.13763744e-02 3.34352907e-03 2.01693946e-03
      6.82480226e-04 8.64603673e-04 4.52195480e-03 1.48519746e-03
      1.95650663e-03 2.13666540e-03 2.73662875e-03 7.28038559e-03
      3.21341329e-03 2.83728936e-03 9.12235177e-04 5.90643939e-03
      1.44080701e-03 3.46302753e-03 2.54486362e-03 6.78354641e-03
      7.16856169e-03 2.71667517e-03 2.61981995e-03 9.37434030e-04
      8.11968278e-03 7.12040113e-04 6.04948169e-03 4.50966554e-03
      6.75609242e-03 8.87499098e-03 3.27122211e-03 3.76244402e-03
      1.03616773e-03 1.72170512e-02 4.51092346e-04 8.49872548e-03
      6.31478708e-03 8.47219583e-03 6.07905257e-03 2.95660552e-03
      1.95585797e-03 1.00944284e-03 4.70348774e-03 1.39389059e-03
      3.87411425e-03 3.08318064e-03 5.54267457e-03 5.53916302e-03
      2.74120178e-03 2.11965805e-03 1.01158710e-03 1.04954466e-02
      9.79806297e-04 4.15186211e-03 3.17624933e-03 4.97554941e-03
      6.81871595e-03 3.11885728e-03 3.82660632e-03 1.35647145e-03
      1.19370576e-02 4.65343415e-04 5.84416464e-03 4.23468091e-03
      6.27510110e-03 7.67835323e-03 5.03753126e-03 4.82573826e-03
      1.29319646e-03 1.58712249e-02 5.06837270e-04 6.00610254e-03
      3.78614967e-03 6.18575281e-03 4.86628385e-03 1.96199259e-03
      1.72294467e-03 1.35950244e-03 8.24332237e-03 1.05084840e-03
      2.81140790e-03 2.49164132e-03 4.14608186e-03 5.71783073e-03
      2.25811172e-03 1.72136270e-03 1.32992293e-03 1.58714987e-02
      9.59657191e-04 5.27722808e-03 3.31818801e-03 5.23066148e-03
      7.65521778e-03 3.90313915e-03 3.51800397e-03 9.71963455e-04
      1.37181161e-02 4.39785799e-04 4.59992420e-03 2.91163451e-03
      6.13430981e-03 7.24414550e-03 3.46905016e-03 5.03160059e-03
      1.14008109e-03 1.02567682e-02 5.82409615e-04 2.20667990e-03
      2.34976271e-03 6.03811163e-03 5.83012355e-03 2.25602649e-03
      1.80760631e-03 1.01281004e-03 1.57921966e-02 4.42999677e-04
      5.89518668e-03 3.64691229e-03 5.41155320e-03 5.17684780e-03
      2.95639550e-03 3.49944504e-03 1.01274787e-03 1.41076380e-02
      6.39480073e-04 2.71794153e-03 2.42811069e-03 4.54840995e-03
      5.70161175e-03 3.31089273e-03 4.41649230e-03 1.51535403e-03
      8.95689242e-03 7.57128466e-04 1.58423302e-03 1.69694610e-03
      3.84376175e-03 6.60510780e-03 5.30293770e-03 4.81327996e-03
      1.59678061e-03 9.42056999e-03 6.63563784e-04 1.68906897e-03
      1.32393057e-03 4.20682831e-03 5.02628461e-03 3.23492289e-03
      3.97782261e-03 8.14997300e-04 9.15469043e-03 9.33996751e-04
      2.17844965e-03 1.70725770e-03 3.93031584e-03 7.74849998e-03
      3.30485753e-03 3.73516232e-03 9.05947993e-04 9.41732898e-03
      7.93322572e-04 2.14021467e-03 1.65234134e-03 5.77731943e-03
      7.41645461e-03 6.96217548e-03 4.72247973e-03 1.06067129e-03
      9.07595176e-03 1.41668203e-03 3.19079356e-03 1.92476064e-03
      4.61890968e-03 6.29744260e-03 4.97864373e-03 3.12267127e-03
      7.50357052e-04 9.07260925e-03 2.42955168e-03 3.40568204e-03
      1.60791236e-03 4.40498581e-03 7.47756381e-03 3.46003473e-03
      2.30952469e-03 5.05154720e-04 9.28047206e-03 8.44396302e-04
      1.79349550e-03 1.09419180e-03 5.22926357e-03 4.37539350e-03
      2.99687264e-03 1.21997751e-03 7.49589701e-04 6.80088438e-03
      1.94896141e-03 2.33567180e-03 1.58115756e-03 2.80877063e-03
      5.14036650e-03 3.00165429e-03 2.30720034e-03 1.12081890e-03
      6.47503324e-03 1.94084027e-03 2.47375946e-03 1.12355838e-03
      3.15207429e-03 5.86399902e-03 4.05928772e-03 3.27574601e-03
      1.33413647e-03 9.27829742e-03 1.82354520e-03 2.39967951e-03
      2.45747203e-03 3.96170793e-03 4.43568407e-03 3.53659177e-03
      1.39204459e-03 1.06731046e-03 7.09510362e-03 1.78486761e-03
      1.88432797e-03 1.33831997e-03 2.29912996e-03 5.85319242e-03
      3.98620591e-03 5.68240276e-03 5.68182813e-03 1.01506226e-02
      4.78819106e-03 2.45426944e-03 2.35304423e-03 4.28162608e-03
      4.39593149e-03 3.76932183e-03 2.15249648e-03 1.59073540e-03
      5.95581485e-03 1.86305237e-03 2.31530913e-03 2.11463589e-03
      3.10291955e-03 5.53211384e-03 5.03521180e-03 1.93798286e-03
      2.26402492e-03 7.70156179e-03 3.76711017e-03 3.54425400e-03
      3.07643088e-03 3.81390075e-03 3.80087108e-03 5.37483161e-03
      4.01627505e-03 2.21556402e-03 6.30263938e-03 1.57341035e-03
      1.85941835e-03 1.44463510e-03 3.14605958e-03 6.06511068e-03
      5.13913436e-03 3.68717662e-03 2.63827038e-03 8.69825669e-03
      4.45604371e-03 4.94413776e-03 3.60351591e-03 5.70015470e-03
      4.72045457e-03 3.79619282e-03 1.52636948e-03 1.25246146e-03
      6.41601440e-03 2.37834803e-03 3.16862599e-03 2.62414129e-03
      3.53850378e-03 6.43922482e-03 5.37407445e-03 2.88241706e-03
      3.54800140e-03 1.23944310e-02 3.21039441e-03 3.61842429e-03
      2.64158007e-03 5.25505003e-03 4.98384936e-03 4.34004655e-03
      2.32554437e-03 1.17985660e-03 8.54248460e-03 4.35597170e-03
      3.80426971e-03 3.08375759e-03 4.00424236e-03 5.48733911e-03
      4.24414966e-03 3.66126560e-03 3.76095413e-03 2.04708353e-02
      3.51139554e-03 3.97824636e-03 2.96837231e-03 4.91570774e-03
      5.96142607e-03 4.81580477e-03 4.17661015e-03 3.06974398e-03
      1.22139985e-02 2.27454025e-03 2.98608351e-03 3.02889966e-03
      5.97263267e-03 8.16088915e-03 6.68856455e-03 9.20298044e-03
      3.21636046e-03 1.26073416e-02 1.91481633e-03 3.58484290e-03
      4.21459414e-03 8.73786677e-03 4.61997371e-03 3.90841812e-03
      4.09817370e-03 2.85564782e-03 1.40567534e-02 2.41396134e-03
      2.86646117e-03 2.15419149e-03 3.97792459e-03 6.95116678e-03
      4.69919341e-03 6.48590690e-03 2.56433012e-03 1.33397058e-02
      1.99827924e-03 2.37653288e-03 3.44992080e-03 6.16256008e-03
      8.60456191e-03 6.94326544e-03 8.51096958e-03 2.65182485e-03
      1.16396016e-02 1.70238689e-03 2.81022186e-03 3.52189736e-03
      8.27712845e-03 8.64874758e-03 6.61032461e-03 7.62710627e-03
      3.27039324e-03 1.34626683e-02 2.14193086e-03 2.54715630e-03
      2.54473812e-03 7.95680378e-03 7.68300891e-03 4.01226478e-03
      3.93037125e-03 1.87296409e-03 1.14552956e-02 2.05472973e-03
      1.95803982e-03 4.20123339e-03 6.92863110e-03 7.19262380e-03
      3.02334456e-03 2.53355806e-03 1.81781885e-03 9.15545225e-03
      1.67523941e-03 1.94803323e-03 3.45004955e-03 6.73715770e-03
      8.67751054e-03 5.20359352e-03 8.76602530e-03 2.22806423e-03
      1.37799624e-02 3.76980752e-03 3.23392847e-03 3.11884820e-03
      9.09488276e-03 7.63289118e-03 3.01707070e-03 3.99846537e-03
      2.88116862e-03 1.33998543e-02 4.64534573e-03 4.76503884e-03
      3.29654664e-03 8.57304037e-03 7.31208175e-03 2.39539426e-03
      2.21992494e-03 2.21222593e-03 9.67714563e-03 3.08712362e-03
      2.93827360e-03 3.54542164e-03 6.64887065e-03 7.05926167e-03
      3.21382401e-03 2.81589548e-03 3.41941463e-03 1.06860166e-02
      3.91978445e-03 4.50939359e-03 3.88237741e-03 5.58214355e-03
      6.52029831e-03 1.60007272e-03 2.29188777e-03 4.09672409e-03
      1.54491644e-02 5.03614079e-03 5.88236749e-03 2.49951566e-03
      6.79964805e-03 6.62186602e-03 2.14802730e-03 4.38642595e-03
      3.71498219e-03 1.52864540e-02 5.10640210e-03 5.84704010e-03
      2.89149443e-03 6.89250976e-03 6.09419309e-03 4.21604561e-03
      3.75959929e-03 4.69319662e-03 1.07810739e-02 4.98515926e-03
      4.62618051e-03 3.67227942e-03 5.67866396e-03 4.31739166e-03
      2.61682924e-03 2.86822417e-03 4.26826486e-03 1.07655488e-02
      5.93510922e-03 4.34768572e-03 1.76877342e-03 4.17042663e-03</_>
    <_>
      4.61870693e-02 2.84559634e-02 3.54936384e-02 2.66867578e-02
      -2.81496029e-02 6.93472335e-03 1.64701138e-02 1.14900414e-02
      2.02409979e-02 6.25715926e-02 8.46231729e-03 -1.54607734e-02
      -1.50009748e-02 -1.99155807e-02 -5.04355058e-02 -5.64496927e-02
      -3.08862310e-02 2.84419619e-02 4.49183583e-02 -2.10485496e-02
      5.36277518e-03 3.17741297e-02 -1.12667317e-02 1.39154028e-02
      -5.45536494e-03 1.79378130e-02 1.39516322e-02 -1.30973496e-02
      -3.04148477e-02 -4.61818315e-02 7.11755781e-03 -6.16683718e-03
      -2.56322511e-02 -6.11144006e-02 -2.75766104e-02 -1.45062720e-02
      1.61048062e-02 3.95762036e-03 -1.87647715e-02 3.06345429e-03
      -3.65116820e-02 -2.17676945e-02 -2.12868229e-02 -1.77435894e-02
      6.68050582e-03 3.95469703e-02 5.67216426e-02 2.72627100e-02
      3.77418809e-02 5.18199429e-03 1.45279737e-02 3.18186283e-02
      8.07741657e-03 1.10676968e-02 -5.58760054e-02 4.62736282e-03
      7.11708982e-03 1.20126996e-02 -3.41322869e-02 -1.46794394e-02
      -2.77852602e-02 -6.03753049e-03 -5.88244312e-02 -2.63331123e-02
      2.15711873e-02 1.62121095e-02 2.29598507e-02 -8.34141858e-03
      -1.70122441e-02 -3.72634083e-02 -5.16000167e-02 -5.22318780e-02
      6.37574568e-02 7.70244896e-02 6.35722131e-02 3.38433161e-02
      -4.02020179e-02 -5.21260984e-02 1.59936491e-02 5.69000980e-03
      2.85838377e-02 5.36196269e-02 6.15061633e-02 5.19872494e-02
      7.14367554e-02 -2.27139331e-02 -6.24077506e-02 -9.31208720e-04
      -1.50284199e-02 1.18231047e-02 1.91733129e-02 -2.13601608e-02
      -3.45145017e-02 1.55994706e-02 -2.10369267e-02 -3.48303430e-02
      -7.22017081e-04 -4.08526808e-02 1.00094629e-02 7.21905800e-03
      -5.03166914e-02 -4.15769517e-02 1.86134744e-02 -1.24659417e-02
      -5.24524264e-02 8.48931144e-04 -4.67236675e-02 2.78121568e-02
      1.56320147e-02 1.41856531e-02 7.69982766e-03 5.94310537e-02
      3.19554545e-02 -6.36029476e-03 4.07804456e-03 -3.44598480e-03
      1.15468334e-02 -8.04527570e-03 -4.59419228e-02 -4.60122712e-02
      -1.59156006e-02 5.98531961e-03 -3.26130949e-02 -2.61057839e-02
      -1.56450234e-02 -3.88060440e-03 1.20282650e-03 -1.41156744e-02
      -1.25055313e-02 4.24231552e-02 3.78929712e-02 9.70081135e-04
      1.40149957e-02 -4.33794019e-04 2.65578236e-02 -7.22198747e-03
      -8.47405791e-02 -3.08282189e-02 1.47347469e-02 3.56646851e-02
      -7.05338595e-03 -1.12915225e-02 1.01441322e-02 2.11565439e-02
      1.15596028e-02 -2.86357496e-02 -8.42070859e-03 -1.27824359e-02
      -1.54202506e-02 -4.52628918e-03 -7.31375627e-03 -2.52904440e-03
      2.84271520e-02 2.51152534e-02 -1.20745441e-02 2.59712711e-03
      -4.00179513e-02 -3.49457003e-02 -2.03501917e-02 -2.70633516e-03
      2.05966346e-02 3.40534747e-02 -8.92942864e-03 -3.66720445e-02
      3.02058775e-02 3.54484543e-02 4.58004847e-02 2.55501326e-02
      1.02034342e-02 -7.62438402e-03 1.85936224e-02 1.54426545e-02
      -6.19961065e-04 1.73720978e-02 -2.47941036e-02 2.07734331e-02
      -8.48785322e-03 -3.09792324e-03 -1.67464651e-03 -1.56153580e-02
      2.29744948e-02 2.03116350e-02 5.87201072e-03 -2.45745908e-02
      -1.08978460e-02 -1.70227587e-02 -5.56663238e-03 3.60579267e-02
      1.69213545e-02 -2.71025319e-02 1.70393139e-02 1.37075195e-02
      -2.57292222e-02 -4.08385098e-02 -7.97063187e-02 -2.77408790e-02
      -8.80021602e-03 6.14885881e-04 -9.88535397e-03 1.60979778e-02
      5.09080593e-04 -2.45995615e-02 -7.50470150e-04 6.94485847e-03
      1.80181544e-02 2.52731591e-02 -2.46123550e-03 -5.07428907e-02
      2.54630130e-02 -1.28664151e-02 -8.01827107e-03 -2.48753093e-02
      -4.37455438e-02 -8.20471905e-03 7.19151739e-03 -3.91124338e-02
      -3.54537070e-02 -1.44725870e-02 1.34355556e-02 -2.19595358e-02
      3.65852308e-03 -4.49157022e-02 -4.13552225e-02 -2.20477208e-02
      -1.39988363e-02 -8.97226203e-03 -2.90425178e-02 -2.15480179e-02
      -2.15466823e-02 -3.47178848e-03 -2.71351766e-02 -2.92240214e-02
      -2.43923441e-02 2.54873210e-03 -1.89319514e-02 1.09721683e-02
      1.27987238e-02 7.64061045e-03 1.80080440e-02 -6.85229106e-03
      -2.88816262e-03 -3.52216046e-03 7.56141497e-03 1.64164770e-02
      -7.23044295e-03 3.71576229e-04 -1.42481048e-02 -1.16574403e-03
      2.05343813e-02 2.95183491e-02 1.91123318e-02 2.10450627e-02
      -2.38002930e-03 -4.18187603e-02 -5.80156222e-02 -5.29352278e-02
      -7.06022531e-02 -5.42939082e-02 -9.71335825e-03 -3.84220126e-04
      -9.57749784e-03 1.69132352e-02 2.79805041e-03 -2.38858685e-02
      -1.55091770e-02 -2.24359818e-02 -3.50550897e-02 -2.59139612e-02
      -3.04284953e-02 -1.21180313e-02 3.07753216e-02 3.31080286e-03
      -3.30664814e-02 -4.48252298e-02 -3.58373374e-02 5.33502176e-03
      4.11022156e-02 3.53601277e-02 2.17512231e-02 3.96517329e-02
      1.95022265e-03 -3.27163679e-03 8.56435392e-03 -1.82520188e-02
      -7.47573969e-04 2.25089118e-02 4.34900541e-03 1.37647055e-02
      1.92211494e-02 -2.97629274e-04 -9.72904172e-03 -2.52321735e-02
      -2.24149935e-02 -3.35213058e-02 -1.96397980e-03 -4.06137370e-02
      -3.93133145e-03 3.13551873e-02 1.87453767e-03 9.15458892e-03
      -3.68905105e-02 -4.16605435e-02 -3.02290060e-02 2.03892067e-02
      -2.01865006e-02 -8.69823433e-03 4.63448502e-02 5.85116539e-03
      -2.23888159e-02 1.06245764e-02 -1.13725930e-03 -1.43571766e-02
      1.56283509e-02 -2.78885886e-02 5.63301332e-03 1.41636077e-02
      1.02680838e-02 -2.31451988e-02 -1.68285554e-03 9.53078084e-03
      -8.57034931e-04 1.70712266e-02 2.62380415e-03 3.62157151e-02
      3.98651026e-02 7.34592462e-03 1.83971394e-02 -8.04683473e-03
      -3.27259973e-02 -3.30030359e-02 1.19608846e-02 -4.25802618e-02
      -2.60188291e-03 1.74004473e-02 3.55080217e-02 2.34910324e-02
      2.60614902e-02 -3.64333577e-02 -3.36082689e-02 4.28495370e-02
      2.93545555e-02 2.34087687e-02 2.37573939e-03 -2.95491032e-02
      -1.45093035e-02 2.17029937e-02 -2.19739061e-02 -7.17895664e-03
      3.28459125e-03 -2.71517858e-02 2.40690424e-03 3.75732481e-02
      -1.13241924e-02 -3.65644693e-03 1.39528625e-02 -2.18692664e-02
      8.31513945e-03 4.26254906e-02 2.41028704e-02 3.02595124e-02
      -4.38895868e-03 -2.42585652e-02 -2.78488696e-02 -2.93596778e-02
      -5.88795133e-02 -5.76210730e-02 3.28522399e-02 5.58470748e-02
      2.13288926e-02 3.00274119e-02 -8.41687340e-03 1.21121965e-02
      6.85444027e-02 -2.17115656e-02 -3.21517885e-02 3.47295329e-02
      4.02955562e-02 5.55953756e-02 4.63408651e-04 -6.14272244e-02
      -3.97331379e-02 -3.55420373e-02 -3.88349704e-02 -5.33444546e-02
      1.89757328e-02 3.18375230e-02 4.77174344e-03 5.90749271e-03
      -4.39523421e-02 2.28143129e-02 4.84062880e-02 -1.18939057e-02
      -1.91706531e-02 2.31538936e-02 3.63783687e-02 2.62287818e-02
      1.19248824e-03 -2.28322968e-02 3.11258389e-03 8.21013600e-02
      -1.19316522e-02 -1.91185512e-02 2.60041677e-03 1.61977150e-02
      2.46648546e-02 1.11216940e-02 6.33052597e-03 2.01262198e-02
      2.90760621e-02 -1.77506600e-02 6.30208160e-05 -2.95458734e-02
      5.96470432e-03 3.32617760e-02 -6.25102129e-03 -5.93442805e-02
      -4.48534219e-03 2.78628003e-02 -4.14701663e-02 -6.07628822e-02
      1.04881972e-02 -2.18867278e-03 1.37945432e-02 1.48509666e-02
      -2.22553313e-02 -2.23222673e-02 -1.05933920e-02 -3.03164031e-02
      -7.55767571e-03 -1.43357562e-02 1.80296581e-02 3.51204537e-02
      3.07688415e-02 8.28620512e-03 6.95940247e-03 -1.12286024e-02
      1.51312333e-02 9.02427081e-03 -1.43523864e-03 1.80205181e-02
      4.67021205e-02 5.01891263e-02 4.81404997e-02 -9.75487928e-04
      -2.90024076e-02 -2.98769679e-02 1.25061311e-02 1.69231053e-02
      2.05246825e-02 3.01554762e-02 -6.75213232e-04 -1.18314950e-02
      -5.14820917e-03 -1.99315362e-02 -1.93474274e-02 -2.48751766e-03
      7.75792310e-03 1.39109222e-02 1.62591767e-02 2.32046377e-02
      1.82175711e-02 -7.50911795e-03 -6.31231442e-02 -4.86370325e-02
      -2.20078584e-02 -9.60526348e-04 1.05659878e-02 6.14963938e-03
      3.67273837e-02 3.79209854e-02 4.21239808e-02 -1.05472445e-03
      -1.39934046e-03 5.01596034e-02 2.73617301e-02 2.30496097e-02
      1.86441336e-02 5.16705308e-03 1.24028986e-02 3.62911671e-02
      -4.87929806e-02 -5.10122478e-02 8.37202463e-03 2.57303659e-02
      3.97399180e-02 3.74730700e-03 -2.20505334e-03 3.81094366e-02
      5.33179529e-02 -4.09438983e-02 -5.03843613e-02 2.16472466e-02
      1.91010609e-02 3.97348069e-02 -4.24825074e-03 -4.55417894e-02
      2.06180401e-02 2.75077038e-02 -6.96639344e-02 -8.35055858e-02
      -5.82853369e-02 4.60747257e-03 4.67473641e-02 -1.24329478e-02
      1.72483958e-02 2.44563054e-02 2.37268303e-02 -1.71140768e-02
      -3.00243907e-02 -1.48751279e-02 2.98471954e-02 3.27097811e-02
      3.76211740e-02 4.22556177e-02 2.82555614e-02 3.70458490e-03
      3.96876363e-03 -4.06161770e-02 -2.30474044e-02 -1.39586674e-02
      1.82848913e-03 2.79423539e-02 1.62133481e-02 3.70096974e-02
      -4.47179377e-03 -2.00123712e-02 -7.98298344e-02 -4.05646786e-02
      -1.06944470e-02 2.17625294e-02 1.39943631e-02 1.59141459e-02
      -1.99870695e-03 1.04317209e-02 7.99189042e-03 -4.70648594e-02
      -2.61327010e-02 -7.17972592e-02 -1.53151480e-02 2.26521585e-03
      4.10473496e-02 5.45683503e-02 1.71029847e-02 4.20649201e-02
      -1.20126912e-02 -2.29138061e-02 -1.65306088e-02 1.09272180e-02
      5.18005304e-02 -1.20842755e-02 2.91300705e-03 -5.46125881e-03
      2.81663574e-02 -3.61220315e-02 -1.31850541e-02 -2.67164726e-02
      -4.29157447e-03 7.94228725e-03 -1.44772255e-03 2.98351739e-02
      3.28563317e-03 2.39738915e-02 -1.60492363e-03 -1.50423124e-02
      -6.43097013e-02 -1.20275386e-03 -9.70850047e-03 -4.73899506e-02
      -2.94417590e-02 -1.32670663e-02 2.72517037e-02 -1.75436437e-02
      -2.58509479e-02 -6.06920086e-02 -2.27156449e-02 -4.37767357e-02
      2.60259211e-02 3.01377736e-02 1.84623413e-02 -1.13247875e-02
      -2.49132384e-02 -9.64985974e-03 -3.02824024e-02 1.66271608e-02
      3.11191473e-02 3.28910686e-02 1.54799642e-03 -2.22038701e-02
      -7.95288235e-02 -3.10865846e-02 -1.31944790e-02 -3.96011174e-02
      -1.15792861e-03 2.75516380e-02 -1.09913852e-03 -1.10644847e-02
      -1.17991893e-02 -1.07880086e-02 -1.17615629e-02 -2.78792437e-02
      -2.74787415e-02 -1.10160159e-02 -1.44356089e-02 3.80424550e-03
      -2.50807386e-02 -5.14281727e-02 -1.01315252e-01 -6.64854646e-02
      -1.11120781e-02 -3.68933044e-02 -2.68661492e-02 1.48054527e-03
      1.35853365e-02 -2.04800256e-02 7.66309269e-04 5.80359735e-02
      2.37842873e-02 5.38956793e-03 2.75522862e-02 4.01028953e-02
      3.34904753e-02 -8.32011830e-03 -9.37537849e-03 6.39121840e-03
      4.45140488e-02 1.23961251e-02 -2.11275499e-02 2.36902665e-02
      2.30436865e-02 7.58442655e-03 -3.35287191e-02 -8.69403258e-02
      -4.89797369e-02 2.97334325e-02 4.45033014e-02 7.18585216e-03
      -4.08394216e-03 -2.48423195e-03 -1.51446806e-02 -1.49974544e-02
      -4.47831042e-02 -7.40734674e-03 5.20424359e-02 5.45038246e-02
      -1.49046369e-02 7.98782241e-03 -1.26945945e-02 -1.13254637e-02
      4.91640938e-04 2.81165726e-02 5.67442812e-02 2.82139610e-02
      -1.10206343e-02 -3.05110384e-02 8.05098284e-03 1.93473771e-02
      -1.43220536e-02 2.06162408e-02 1.79924145e-02 2.03356147e-02
      3.80343720e-02 2.42283065e-02 9.65140015e-03 1.26629639e-02
      -1.50751404e-03 -2.15913616e-02 -1.81425922e-02 -2.86489259e-02
      -8.13476834e-03 4.59721908e-02 6.34354874e-02 -1.97792444e-02
      7.29069626e-03 -1.87013391e-02 -4.36659083e-02 1.72409258e-04
      4.46387846e-03 2.03144811e-02 6.72914088e-02 7.63304532e-02
      3.11000478e-02 3.65242292e-03 -9.18604806e-03 -5.54159563e-03
      2.80681904e-02 -1.39807407e-02 -2.73367367e-03 3.21744941e-02
      4.97991219e-02 4.19358499e-02 3.81997861e-02 -1.44550682e-03
      3.66345420e-03 4.14689854e-02 -8.46264046e-03 -2.85912934e-03
      3.31258476e-02 -2.62338901e-03 -2.66530719e-02 3.98242809e-02
      5.18402411e-03 4.33181264e-02 -3.19628953e-03 -3.37446369e-02
      -2.63627414e-02 2.96043400e-02 2.83192545e-02 2.62914058e-02
      1.25677250e-02 -8.46000202e-03 7.68428529e-03 3.61905061e-02
      4.07190993e-02 1.09687122e-02 3.78760211e-02 1.27469068e-02
      -3.56697924e-02 2.36268174e-02 -3.18610705e-02 4.32033315e-02
      -7.36481184e-03 -9.44188982e-03 -2.15413403e-02 -8.92117526e-03
      8.99873767e-03 -2.54014297e-03 3.63528840e-02 2.08083075e-02
      4.32093702e-02 9.84111056e-03 -2.02561524e-02 -2.33365223e-02
      -3.99972834e-02 -4.35387669e-03 1.73979835e-03 3.00596524e-02
      3.49675044e-02 4.46549989e-02 6.83032814e-03 -1.69548988e-02
      -2.50954609e-02 1.88288670e-02 2.22015493e-02 -1.76686011e-02
      4.58003627e-03 -9.54408664e-03 3.50485593e-02 -4.32536155e-02
      5.56174060e-03 -3.53165008e-02 -1.07996482e-02 3.65046337e-02
      2.13870667e-02 3.99180017e-02 1.98765472e-02 4.93768416e-03
      -2.19184272e-02 6.42465148e-03 3.17067802e-02 -7.18445657e-03
      -2.98175641e-04 3.86052579e-02 1.57813299e-02 -2.46917922e-02
      -2.39179395e-02 -6.70133084e-02 -4.01826669e-03 1.44570880e-02
      -1.86160654e-02 -2.83262245e-02 4.96439263e-03 -1.62622146e-02
      -4.82356437e-02 -6.20996021e-02 -4.15319577e-02 -1.82001498e-02
      4.62908335e-02 4.92611667e-03 1.32915648e-02 3.38049345e-02
      5.31430431e-02 2.27843397e-04 -6.16014376e-03 -7.83829391e-02
      -4.52754386e-02 4.17920575e-02 -1.84725579e-02 -2.22510751e-02
      9.06890538e-03 1.76463649e-02 -1.46908071e-02 -3.99537049e-02
      -5.64349778e-02 1.24282287e-02 -3.77491023e-03 -2.42026150e-02
      1.08118029e-03 2.96054466e-04 1.65888406e-02 -2.16696691e-03
      -3.27357799e-02 -6.32143989e-02 -1.30448192e-02 -5.71752004e-02
      -5.19234426e-02 -1.36211105e-02 -7.21606007e-03 7.08679529e-03
      -3.17916907e-02 -5.09076975e-02 -2.38590371e-02 -2.06119195e-02
      3.32206450e-02 4.22229152e-03 4.43722121e-03 8.46317504e-03
      1.73029117e-02 1.88010716e-04 -2.51134895e-02 -3.27154696e-02
      1.39084933e-02 -3.01377140e-02 -6.71800375e-02 -2.11436413e-02
      1.35376141e-03 5.46637550e-03 -2.86244452e-02 -3.42956632e-02
      -4.61864658e-02 -2.37640901e-03 -2.15525366e-02 -4.32232320e-02
      -1.26100713e-02 -3.22120488e-02 -3.52425575e-02 -3.60872187e-02
      -3.22115049e-02 -5.44752460e-04 -4.58718650e-02 -2.92039588e-02
      -3.09076738e-02 -2.66575012e-02 -2.77562290e-02 5.11850836e-03
      -3.17881233e-03 -2.63440069e-02 1.23010678e-02 -3.06960754e-03
      -3.60113010e-02 -6.54171556e-02 -9.02936701e-03 -3.21147987e-03
      -5.73914871e-03 8.90632160e-03 4.31415858e-03 -1.65962558e-02
      -2.03781854e-02 -1.29030962e-02 -1.52742760e-02 7.85468798e-03
      -1.19659081e-02 4.76107672e-02 3.75847854e-02 2.42261309e-03
      -3.32524925e-02 -8.54323953e-02 -4.51699905e-02 -3.10376175e-02
      -3.54060084e-02 -3.51149566e-03 2.23765504e-02 -8.43419135e-03
      -4.93197925e-02 -1.04877306e-03 -3.88309397e-02 -1.11026112e-02
      3.16664465e-02 1.39621859e-02 2.34670192e-02 2.57047196e-03
      -2.65748426e-02 -3.33761461e-02 -1.06185563e-02 -1.38219511e-02
      -1.80541561e-03 1.03080720e-02 9.96999349e-03 -5.53688733e-03
      3.01356278e-02 9.58795566e-03 2.84792930e-02 1.05951289e-02
      -1.51610142e-02 -8.60099494e-03 2.54080016e-02 4.70891371e-02
      1.95393022e-02 -1.29595362e-02 -1.21016391e-02 2.36862153e-02
      -6.33147126e-03 -2.24524997e-02 -8.65664706e-03 3.51718478e-02
      4.92260233e-03 -1.57478973e-02 -5.40830614e-03 -4.34683934e-02
      -3.97090949e-02 -1.22742886e-02 -1.35679282e-02 -1.08953193e-02
      5.40376678e-02 6.48195902e-03 -2.68054586e-02 6.19023712e-03
      -2.90266592e-02 -3.50082759e-03 1.53620457e-02 9.20309871e-03
      -1.38039971e-02 2.51270272e-02 2.32612863e-02 -1.36540420e-02
      -2.39183046e-02 -1.45828659e-02 7.09481025e-03 2.70287860e-02
      2.66920161e-02 -1.07243368e-02 4.12282627e-03 -1.32424459e-02
      -2.17008851e-02 -1.29879201e-02 -1.40206395e-02 -1.42320720e-02
      -3.22764367e-02 -7.56442547e-02 -1.69479977e-02 7.20170811e-02
      1.71175096e-02 -3.93058453e-03 8.43793794e-04 -5.29254936e-02
      -4.39852290e-02 -2.47786008e-02 -7.12342113e-02 -1.35797523e-02
      4.01945822e-02 6.47507608e-03 7.81943905e-04 6.18169038e-03
      -3.53283212e-02 9.75828734e-05 2.75450503e-03 -2.77795419e-02
      -2.20242757e-02 3.80215421e-02 2.07076091e-02 -1.70180609e-03
      -4.02632123e-03 -4.56287786e-02 -1.85605753e-02 1.68063529e-02
      -9.30178631e-03 2.40155328e-02 4.66508679e-02 1.05815995e-02
      -1.10507468e-02 3.08915731e-02 6.40415354e-03 4.62154448e-02
      -1.84545536e-02 -5.24679050e-02 -8.03125091e-03 4.79721511e-03
      1.34249181e-02 -2.75432933e-02 -1.84519012e-02 -2.96303220e-02
      -2.15528123e-02 -4.27629240e-02 -5.35474010e-02 5.59231732e-03
      3.51292156e-02 1.36006819e-02 -9.63098090e-03 -4.07080865e-03
      -1.63575157e-03 -9.36622266e-03 3.88343688e-06 1.23620480e-02
      3.78101803e-02 2.02996787e-02 -1.05708726e-02 -3.37432623e-02
      -2.13424396e-02 -6.49889791e-03 4.59904969e-03 1.07146213e-02
      1.44416923e-02 2.78773624e-03 3.86036262e-02 1.11890268e-02
      -3.65466662e-02 -5.96316904e-03 1.53547395e-02 3.71050462e-03
      9.37532261e-03 -4.42584641e-02 2.26392469e-04 3.13225612e-02
      1.70500705e-03 -8.39475368e-04 1.56534370e-02 9.78331640e-03
      1.83432959e-02 2.22312082e-02 6.26656786e-03 9.41486098e-04
      1.63779166e-02 2.11524256e-02 1.47751430e-02 1.81995369e-02
      8.59063398e-03 3.36045735e-02 -6.67152880e-03 -2.08057519e-02
      -2.11968776e-02 1.86831150e-02 -2.71196687e-03 -2.54620761e-02
      7.46499375e-03 4.11862927e-03 -2.10961159e-02 -2.50252038e-02
      -4.65266146e-02 -4.18618321e-02 -1.97107214e-02 -2.88516339e-02
      -1.47748357e-02 8.82810913e-03 -2.11611986e-02 -4.52064946e-02
      2.71553341e-02 9.78759490e-03 2.41114497e-02 2.21917033e-02
      2.16817507e-03 2.48788707e-02 3.43370959e-02 1.26057304e-02
      2.51810942e-02 2.69895159e-02 1.33805061e-02 1.23605188e-02
      -3.98204140e-02 -4.73482646e-02 6.27080677e-03 2.39436217e-02
      2.18166951e-02 3.15741934e-02 -2.72110775e-02 -3.77443433e-02
      -5.77052706e-04 -1.30708134e-02 -1.87311824e-02 4.23316006e-03
      1.85510870e-02 -3.88838351e-02 -3.43318172e-02 -1.10327322e-02
      -1.29891448e-02 -1.74637102e-02 -2.77704224e-02 -3.53699699e-02
      -2.08564494e-02 -1.55574325e-02 -7.44804833e-03 -1.05262427e-02
      3.37678269e-02 1.66976489e-02 3.29735354e-02 -1.93440132e-02
      -3.24062929e-02 1.17384735e-02 1.25142112e-02 2.43771467e-02
      2.01850142e-02 1.87597889e-02 3.79207730e-02 1.19008915e-02
      -2.39284411e-02 -3.18879634e-02 -2.02615596e-02 2.87174080e-02
      3.41570750e-02 3.08569917e-03 -2.00052038e-02 -2.90245358e-02
      8.23218189e-03 1.29616698e-02 -3.13913152e-02 4.69612237e-03
      -7.86451530e-03 -2.11874619e-02 -9.23598371e-03 -1.97287332e-02
      2.35396605e-02 6.27850881e-03 -1.09054567e-02 -7.19352253e-03
      1.28494175e-02 -8.71413853e-04 1.09258536e-02 -3.67410928e-02
      1.35128759e-02 1.53287770e-02 -3.75980372e-03 -1.46181127e-02
      -5.22488095e-02 -1.60816312e-02 -1.26164668e-04 1.49148954e-02
      1.10569624e-02 2.85505354e-02 -3.87023427e-02 -4.00532316e-03
      -5.51179750e-03 -4.22713161e-03 1.63795950e-03 -2.15414260e-02
      1.90162752e-02 4.28366512e-02 -1.46933272e-02 2.99103977e-03
      -2.24176571e-02 -1.52707491e-02 1.48737812e-02 -1.17556583e-02
      5.39336819e-03 2.37097684e-02 -4.04116651e-03 -7.56519241e-03
      -6.16716892e-02 -3.68736833e-02 -1.77760758e-02 1.65189356e-02
      1.62814911e-02 3.20965648e-02 -2.12924685e-02 3.44937854e-02
      3.68943140e-02 1.11085540e-02 1.84446555e-02 3.31952758e-02
      1.52292149e-02 -5.11455396e-03 -2.16736365e-02 2.45938078e-02
      5.13938852e-02 -3.77328359e-02 -1.99007802e-02 1.57558601e-02
      6.16043992e-03 3.42147723e-02 -2.02413592e-02 -4.31751609e-02
      -1.26294428e-02 -1.25837270e-02 1.18083013e-02 -1.15284342e-02
      3.95507459e-03 3.79657024e-03 2.55328557e-03 -3.47842905e-03
      5.51695153e-02 -1.15738101e-02 4.52064089e-02 -7.48637691e-02
      -3.51472571e-02 2.62865275e-02 -4.97369058e-02 -2.40788814e-02
      -3.50797027e-02 -6.81279367e-03 -3.51960724e-03 -3.74194086e-02
      5.76948281e-03 -1.24086412e-02 6.77032443e-03 -7.26704812e-03
      2.88990214e-02 -2.16763243e-02 -3.86266969e-02 -1.67087093e-03
      1.64014902e-02 1.28044216e-02 -2.60496940e-02 -2.64472701e-02
      -7.92886615e-02 -3.92830856e-02 -2.16403771e-02 -1.53761366e-02
      1.58606286e-04 2.09412836e-02 -3.19875367e-02 -4.64517772e-02
      2.54447135e-04 -6.01745360e-02 -1.94161758e-02 -2.31391378e-02
      -2.46381946e-02 5.20934677e-03 1.41040189e-02 -8.90939962e-03
      -4.94754650e-02 -4.13614549e-02 -1.13199390e-01 -4.30586152e-02
      -3.35431397e-02 2.11761551e-04 -5.59377950e-03 1.23830009e-02
      1.40591757e-02 -2.82399431e-02 -3.02701332e-02 -2.27633361e-02
      -1.24146845e-02 -2.31983373e-03 7.47555075e-03 2.42025778e-02
      4.07593772e-02 1.32364389e-02 -2.80498229e-02 -4.43921564e-03
      1.50475628e-03 1.87360812e-02 -1.96308028e-02 -1.35005945e-02
      1.62614714e-02 1.78854708e-02 6.91873729e-02 2.03753617e-02
      -5.51625155e-03 -5.33743463e-02 -5.17019294e-02 -2.77082976e-02
      7.84664974e-03 5.18044457e-02 1.01792827e-01 2.42534336e-02
      3.19955721e-02 3.34098153e-02 1.69658475e-02 1.55638428e-02
      -3.28404158e-02 -3.40103954e-02 9.69979167e-03 5.89478165e-02
      1.69509724e-02 -3.12095825e-02 4.44013858e-03 2.66005807e-02
      4.13720384e-02 -2.09825747e-02 6.80019753e-03 1.17143057e-02
      5.71421988e-04 4.32017036e-02 -3.75275128e-03 2.46991366e-02
      5.88044226e-02 4.83321100e-02 -1.93545502e-03 1.45684062e-02
      2.83879619e-02 3.81218120e-02 -1.36803305e-02 6.17998280e-03
      4.58815321e-02 3.02028023e-02 3.51468027e-02 -4.60183732e-02
      -3.91786210e-02 2.76916828e-02 1.87868085e-02 1.47186324e-03
      -2.12184954e-02 1.06732640e-02 1.82100199e-02 2.73899939e-02
      -3.36422622e-02 -1.80443138e-04 -1.13560110e-02 -4.01454326e-03
      3.78855225e-03 -2.09527574e-02 -1.13929342e-02 1.87575910e-02
      -2.23023780e-02 4.94542764e-03 3.69009469e-03 8.49366625e-05
      1.02793397e-02 3.77826132e-02 1.59891956e-02 1.82779208e-02
      2.80080959e-02 3.96494148e-03 -1.60531942e-02 1.14199715e-02
      -5.27903251e-03 6.64376887e-04 -1.64867043e-02 -2.24180929e-02
      -3.32085565e-02 1.02382175e-04 -1.40901711e-02 2.51357211e-03
      1.08005507e-02 -1.97237283e-02 -2.06802203e-03 1.57240387e-02
      -4.65789400e-02 -5.83872460e-02 1.94944825e-03 -4.78113256e-03
      6.95560966e-03 9.13011190e-03 6.70994632e-03 1.51730180e-02
      5.34953643e-03 -6.22943789e-02 -3.61183137e-02 1.25536695e-02
      2.13958006e-02 -1.29779233e-02 -3.66662182e-02 -1.70692075e-02
      -2.56927311e-03 -9.08524822e-03 -4.65590246e-02 -5.28852679e-02
      1.27008948e-02 3.67924385e-02 3.05057056e-02 2.78910473e-02
      1.34472065e-02 1.70516185e-02 2.69149877e-02 -8.97612497e-02
      -9.12951827e-02 -2.82283407e-02 4.40493412e-02 9.88036394e-03
      -5.27196042e-02 -2.20542937e-03 3.38590816e-02 -1.89363153e-03
      -7.82468393e-02 -4.97756004e-02 -8.70879833e-03 2.28058938e-02
      -1.75159238e-02 -4.27991152e-02 1.72999222e-02 5.74288331e-02
      -1.66717879e-02 -4.35925201e-02 -2.08719373e-02 -5.88668219e-04
      -2.77594221e-03 2.12224033e-02 3.18736322e-02 -2.31939508e-03
      3.87729285e-03 -4.49484400e-02 -3.82589102e-02 1.77324209e-02
      -1.67964678e-02 -3.25145163e-02 -3.79223307e-03 2.65378654e-02
      -1.49890101e-02 -4.48845886e-02 -3.48655097e-02 -6.48695603e-02
      -2.44245827e-02 9.24680661e-03 2.62065176e-02 -2.16224864e-02
      -2.82434020e-02 -1.72960460e-02 -3.49549833e-03 -4.36356440e-02
      -1.54644046e-02 2.90879980e-02 2.63293795e-02 1.60575323e-02
      -7.40889460e-03 -2.20798589e-02 -2.56801620e-02 -2.79161409e-02
      -1.09466109e-02 -2.83928700e-02 3.02088484e-02 -9.19514452e-04
      -3.06844153e-02 4.96859802e-03 1.00694876e-02 -5.23848645e-02
      -3.90235931e-02 -3.66932899e-02 -2.55324095e-02 -2.85409167e-02
      -4.39971499e-02 -6.55864328e-02 -4.13200594e-02 -2.97466964e-02
      -3.47474627e-02 -2.54000816e-02 -1.81315448e-02 -2.87307110e-02
      1.24921761e-02 3.88573669e-02 1.41275050e-02 2.96489373e-02
      6.07686816e-03 -2.53176242e-02 -1.84252784e-02 -2.16079932e-02
      -2.81716865e-02 1.39807370e-02 4.35784133e-03 -3.64780705e-03
      -1.42583316e-02 -1.51199279e-02 -9.95481480e-03 -1.77042391e-02
      -4.76965345e-02 -7.45101571e-02 -3.61502431e-02 -3.11862696e-02
      -2.94730887e-02 -4.34595235e-02 -4.47813459e-02 -3.59163173e-02
      -3.44971456e-02 -1.48679046e-02 -5.32056466e-02 -3.40249564e-04
      2.80137975e-02 1.54246027e-02 -2.57079266e-02 1.26694655e-02
      -5.93784591e-03 -9.99321323e-03 -2.29089949e-02 -2.50666179e-02
      2.39038486e-02 2.36426685e-02 -8.42068810e-03 -4.86419760e-02
      -4.97027263e-02 -4.81193997e-02 -1.86463390e-02 4.14886475e-02
      4.51638736e-03 4.10468094e-02 5.20348735e-02 5.31364754e-02
      1.18521750e-02 9.94697679e-03 -1.12519530e-03 4.31715250e-02
      -2.35613878e-03 -6.23479597e-02 -4.96061854e-02 -2.37219669e-02
      -1.73922051e-02 -1.59714669e-02 -2.35748887e-02 -3.40900570e-02
      1.39645301e-02 1.11411791e-02 -7.01728687e-02 -8.88071582e-02
      -6.20448850e-02 -2.59209815e-02 -9.07134358e-03 -5.79587147e-02
      -3.64339463e-02 2.98667941e-02 4.55978066e-02 5.11642313e-03
      -2.68861605e-03 -1.66847762e-02 7.45690241e-03 -1.60404175e-04
      -2.84275413e-02 -2.37375731e-03 4.18582037e-02 3.28147449e-02
      -1.74545348e-02 -4.90402319e-02 -6.35623783e-02 -1.04983822e-02
      -2.08878163e-02 -3.98393981e-02 3.37523036e-03 5.12152016e-02
      1.42052919e-02 -1.03231408e-02 -5.65796010e-02 -1.23101268e-02
      -9.99199599e-03 -1.42424442e-02 -3.58613469e-02 -4.77942377e-02
      -2.42425152e-03 2.40649637e-02 -1.33315753e-03 -5.81445321e-02
      -5.23510054e-02 -5.69197834e-02 -2.68967878e-02 -4.02851366e-02
      -5.96240759e-02 -5.16651757e-03 6.24286048e-02 6.65458757e-03
      -6.32412881e-02 -5.29699773e-02 6.82896608e-03 7.20076216e-03
      -1.24884499e-02 -4.05170135e-02 3.68233845e-02 7.21684620e-02
      -2.73846416e-03 -5.38906567e-02 -4.85719368e-02 -4.00211336e-03
      7.03810714e-03 -1.38890138e-03 -3.13226320e-02 5.20038530e-02
      6.96676737e-03 -3.52516696e-02 -6.91304281e-02 -2.51627304e-02
      -2.99986899e-02 -6.15994260e-03 -4.45132218e-02 -9.54001844e-02
      -3.50119770e-02 2.96710674e-02 -1.37823112e-02 -1.84109733e-02
      -1.94326416e-03 -1.95141528e-02 -1.22462455e-02 -1.17375990e-02
      -4.05165739e-02 5.92061132e-03 4.23925035e-02 -2.31239107e-02
      -3.94158103e-02 -1.56059582e-02 -1.46835251e-02 1.55679034e-02
      -1.58391390e-02 -3.77126783e-02 2.62426138e-02 5.35581000e-02
      1.57498028e-02 -2.36322526e-02 -3.07745952e-03 6.48357952e-03
      1.36582674e-02 -9.06697882e-04 -1.36765931e-03 3.19037586e-02
      1.06874490e-02 -4.68174601e-03 9.82274953e-03 -1.39072957e-02
      -5.06068729e-02 -1.02601647e-02 -1.31011067e-04 -5.78047195e-03
      -1.75133552e-02 5.00051025e-03 -2.31988877e-02 -2.74562109e-02
      -6.38875039e-03 -1.90564208e-02 -2.03117877e-02 -1.63518321e-02
      -2.21073516e-02 -2.10498851e-02 2.26777401e-02 -1.48262875e-02
      -1.96145643e-02 6.76699216e-03 -1.44076673e-02 3.83913852e-02
      -1.18303229e-04 1.23808570e-02 2.76904982e-02 5.70987025e-03
      -4.27092314e-02 -4.16299589e-02 -1.41943675e-02 7.79530127e-03
      1.98017135e-02 -1.74096655e-02 -1.38032418e-02 -5.02346200e-04
      1.18698962e-02 -3.45459506e-02 -1.25618465e-02 1.98719501e-02
      7.17229501e-04 1.19249364e-02 2.52130087e-02 8.42758548e-03
      -1.85567973e-04 -2.84908395e-02 -8.35467130e-02 -5.43197207e-02
      -9.58170393e-04 -2.06791032e-02 2.14419290e-02 2.81619523e-02
      -8.89180042e-03 -5.28967083e-02 2.46603135e-02 -2.36835629e-02
      -7.98347872e-03 2.55295150e-02 2.31462456e-02 1.38237691e-02
      2.73921657e-02 -9.46901739e-03 6.55713677e-02 -2.97103506e-02
      -4.65953723e-02 -5.09447865e-02 -2.75881253e-02 -2.92305220e-02
      1.25195244e-02 -3.63232393e-04 -1.12414649e-02 -3.17468424e-03
      2.46182475e-02 -1.93868168e-02 -4.73134033e-02 2.17090715e-02
      3.59925367e-02 4.98720212e-03 1.69478226e-02 -2.56651640e-02
      -3.96713316e-02 5.37705328e-03 -2.53902562e-02 -2.02563554e-02
      3.37347458e-03 1.76499467e-02 -2.36342065e-02 -1.50090484e-02
      -2.64961869e-02 -3.70224714e-02 3.27267521e-03 -2.31221020e-02
      -5.22119999e-02 1.18992794e-02 9.94641054e-03 8.29870813e-03
      -1.84504651e-02 -2.75534801e-02 -1.68891042e-03 1.95175242e-02
